<?xml version="1.0"?>
<opencv_storage>
<my_svm type_id="opencv-ml-svm">
  <svm_type>C_SVC</svm_type>
  <kernel><type>RBF</type>
    <gamma>8.9999999999999997e-002</gamma></kernel>
  <C>10.</C>
  <term_criteria><epsilon>1.1920928955078125e-007</epsilon>
    <iterations>2147483647</iterations></term_criteria>
  <var_all>324</var_all>
  <var_count>324</var_count>
  <class_count>5</class_count>
  <class_labels type_id="opencv-matrix">
    <rows>1</rows>
    <cols>5</cols>
    <dt>i</dt>
    <data>
      1 2 3 4 5</data></class_labels>
  <sv_total>410</sv_total>
  <support_vectors>
    <_>
      9.03113484e-002 1.32175580e-001 2.55532414e-001 2.55532414e-001
      1.57554016e-001 2.87561379e-002 4.63156514e-002 6.61832765e-002
      1.07465617e-001 1.33882076e-001 5.32904938e-002 1.85417876e-001
      1.63603306e-001 2.55532414e-001 1.19177021e-001 2.54896551e-001
      1.80660605e-001 2.10030898e-001 8.14041570e-002 7.46418312e-002
      2.55532414e-001 2.55532414e-001 2.55532414e-001 6.47893175e-002
      1.10860588e-002 5.27001992e-002 1.07534014e-001 2.55532414e-001
      3.63634527e-002 1.58536732e-001 2.03622267e-001 2.30550647e-001
      6.41673952e-002 4.78897728e-002 9.76836011e-002 2.55532414e-001
      1.88095704e-001 4.03438788e-003 1.92270745e-002 4.23705541e-002
      3.12808841e-001 8.44800398e-002 2.22306728e-001 1.10639729e-001
      2.25342184e-001 3.12808841e-001 2.79963240e-002 7.31105432e-002
      9.37301293e-002 2.91427165e-001 1.10360924e-002 4.48860712e-002
      2.15355828e-002 3.07845742e-001 3.12808841e-001 2.43251212e-002
      6.39334098e-002 5.11903949e-002 1.48020804e-001 2.26110741e-002
      5.67947254e-002 5.01296781e-002 3.12808841e-001 3.12808841e-001
      3.69459502e-002 8.07961151e-002 3.15260626e-002 9.98997539e-002
      2.13611173e-003 1.93801206e-002 2.68234313e-002 3.12808841e-001
      2.46388331e-001 1.21083535e-001 2.09480539e-001 2.18403161e-001
      2.91655272e-001 3.81682022e-003 7.15986069e-004 2.79098283e-003
      1.60824195e-001 2.01734126e-001 1.49757624e-001 1.59856588e-001
      1.97586715e-001 2.91655272e-001 4.40839194e-002 8.11334327e-002
      4.52870764e-002 2.26069152e-001 2.91655272e-001 5.93358055e-002
      1.50413841e-001 1.11607634e-001 2.91655272e-001 2.42249463e-002
      2.20421585e-003 3.77296172e-002 2.91655272e-001 7.65888393e-002
      5.85459918e-002 1.28872186e-001 1.74458519e-001 2.91655272e-001
      5.51907048e-002 1.38237504e-002 3.01583372e-002 5.80338575e-002
      2.35674620e-001 3.71638313e-002 1.03776425e-001 1.12276681e-001
      2.75265396e-001 4.85665388e-002 9.96959489e-003 7.02639297e-002
      3.37629706e-001 3.37629706e-001 1.16008436e-002 3.40866819e-002
      4.29666825e-002 5.17550707e-002 1.36948666e-002 2.22715246e-003
      3.08658220e-002 3.37629706e-001 3.37629706e-001 1.94397736e-002
      6.77970098e-003 5.92740346e-003 6.62110448e-002 2.62788404e-002
      2.99957227e-002 1.47313595e-001 3.37629706e-001 3.37629706e-001
      5.46524115e-003 4.21284931e-003 1.04628177e-003 1.55930093e-003
      3.89233814e-004 1.34686730e-003 7.10275397e-003 3.37629706e-001
      3.45949143e-001 4.02265489e-002 6.64556250e-002 1.80300809e-002
      6.30859146e-003 7.32303131e-004 1.03370170e-003 1.70324873e-002
      3.45949143e-001 3.45949143e-001 4.60837223e-002 6.24476336e-002
      1.77364741e-002 7.06307124e-003 1.28034619e-003 4.00758209e-003
      2.53503416e-002 3.45949143e-001 3.45949143e-001 1.89287476e-002
      1.70043744e-002 4.89343796e-003 1.82598276e-004 0. 0.
      1.63068075e-003 3.45949143e-001 3.45949143e-001 2.01996248e-002
      1.51471952e-002 6.52458286e-003 1.02099299e-001 6.57012090e-002
      6.12814464e-002 7.42121860e-002 3.45949143e-001 3.07444096e-001
      3.02491467e-002 6.22894801e-002 2.99068093e-002 9.63493809e-002
      5.45157753e-002 3.48410644e-002 8.13443363e-002 3.07444096e-001
      7.60485306e-002 1.91748701e-002 6.29835352e-002 6.69116303e-002
      3.07444096e-001 9.73911509e-002 3.40087861e-002 5.90783693e-002
      9.78656486e-002 3.07444096e-001 7.15012755e-003 3.44507257e-003
      3.40840267e-003 3.07444096e-001 2.51798242e-001 2.06540480e-001
      1.86699823e-001 3.07444096e-001 1.35167062e-001 4.74748872e-002
      5.91600090e-002 1.22807324e-001 3.07444096e-001 2.06023782e-001
      1.18103288e-001 1.11765243e-001 1.49033189e-001 3.96323532e-001
      6.66829292e-004 1.99539983e-003 0. 2.47797295e-002 1.26943633e-001
      1.61057413e-001 2.31588438e-001 3.96323532e-001 3.96323532e-001
      8.06999952e-003 3.85926175e-003 0. 1.73524171e-002 2.03737058e-002
      2.96061728e-002 5.39768301e-002 3.96323532e-001 1.23875337e-002
      5.00121911e-004 1.49654970e-003 0. 5.37731349e-002 1.38004005e-001
      3.96323532e-001 1.64653972e-001 2.93950979e-002 2.11984590e-002
      6.70951931e-003 2.89444602e-003 0. 3.67507003e-002 3.44976783e-002
      1.76492497e-001 1.47708729e-001 6.08958788e-002 3.77964675e-001
      1.02645010e-002 4.21076315e-003 0. 3.41681507e-003 1.15333754e-003
      4.77796234e-003 1.55996000e-002 3.77964675e-001 3.77964675e-001
      6.52363012e-003 4.51808237e-003 1.95545633e-003 3.77964675e-001
      2.60572970e-001 3.16065609e-001 2.04100683e-001 3.77964675e-001
      3.80820893e-002 1.14905182e-002 4.82257828e-003 0. 1.31641300e-002
      2.95839994e-003 3.37718688e-002 4.87321205e-002 6.35740310e-002
      6.11986369e-002 2.10453160e-002 1.45528195e-002 6.98771933e-003
      1.39514044e-001 4.88165505e-002 1.37800500e-001 6.54704794e-002
      1.14453569e-001 1.71190038e-001 4.44320589e-003 2.26312061e-003
      1.50874525e-003 2.69459456e-001 2.11592257e-001 2.69459456e-001
      2.01314807e-001 2.69459456e-001 2.69459456e-001 7.90957063e-002
      9.03005600e-002 1.01745628e-001 2.69459456e-001 1.19026825e-001
      1.45868436e-001 1.81388661e-001 2.69459456e-001 8.72396603e-002
      1.47716226e-002 1.82147864e-002 1.25813056e-002 8.59652907e-002
      3.57197523e-002 1.42501161e-001 1.00645222e-001 2.69142807e-001
      2.69459456e-001 4.92066257e-002 9.87481475e-002 1.06422566e-001
      1.82540059e-001 7.23428205e-002 7.17550591e-002 1.47099316e-001
      2.69459456e-001</_>
    <_>
      1.29046991e-001 6.61836863e-002 2.24296957e-001 1.63108334e-001
      2.08017394e-001 9.37181339e-002 1.90840438e-001 1.54092640e-001
      1.95012689e-001 2.07873210e-001 5.74163301e-003 2.67659575e-002
      5.63600697e-002 2.71208644e-001 9.98374969e-002 2.59086907e-001
      1.30217627e-001 2.52701730e-001 2.62800962e-001 3.80517021e-002
      1.68695152e-001 2.10526153e-001 2.07670912e-001 6.50431067e-002
      3.51469442e-002 8.89102817e-002 2.71208644e-001 2.71208644e-001
      2.87522040e-002 8.03081766e-002 6.64247796e-002 1.70926213e-001
      2.72011701e-002 6.74398690e-002 6.20509423e-002 2.71208644e-001
      2.94278890e-001 8.98006558e-003 3.94440070e-002 5.16993068e-002
      2.18886480e-001 1.78699438e-002 6.59990460e-002 3.06838062e-002
      2.80470908e-001 2.52172887e-001 1.24013811e-001 2.11343944e-001
      2.22644910e-001 2.94278890e-001 3.52897961e-003 8.63543188e-004
      3.02281906e-003 1.70653492e-001 2.94278890e-001 2.76764985e-002
      6.25584945e-002 1.82397235e-002 6.38948977e-002 3.64856841e-003
      2.46311557e-002 2.29813382e-002 2.94278890e-001 2.94278890e-001
      6.28615841e-002 1.53177679e-001 1.10002257e-001 2.94278890e-001
      2.23895777e-002 2.02396838e-003 4.17304449e-002 2.94278890e-001
      1.80765957e-001 1.51453897e-001 1.72192991e-001 1.90250486e-001
      3.78938735e-001 2.74293777e-002 4.85157557e-002 2.86000799e-002
      1.72068074e-001 8.46023113e-002 3.84745970e-002 3.14180367e-002
      2.02107579e-001 3.78938735e-001 1.78118423e-001 1.90850437e-001
      5.27099259e-002 1.40715539e-001 1.15493283e-001 6.25807941e-002
      1.39800265e-001 1.59376428e-001 3.78938735e-001 4.75479737e-002
      9.79747716e-003 3.64842266e-002 8.63830671e-002 5.02343243e-003
      1.25378976e-002 2.40318496e-002 1.85877278e-001 3.78938735e-001
      1.28419563e-001 2.14778110e-002 1.55010307e-003 5.19610662e-003
      3.50111514e-001 9.87472665e-003 2.59755421e-002 4.64744456e-002
      5.59057482e-002 1.62516870e-002 1.71730795e-003 2.53825877e-002
      3.50111514e-001 3.50111514e-001 4.23097163e-002 7.38112181e-002
      1.89116150e-002 7.45530613e-003 8.38168256e-004 1.21626153e-003
      1.99521948e-002 3.50111514e-001 3.50111514e-001 5.58524160e-003
      1.97363552e-003 1.59326347e-003 1.89727952e-003 5.04680793e-004
      1.68761599e-003 7.09242281e-003 3.50111514e-001 3.50111514e-001
      1.95601173e-002 1.88131966e-002 4.67077829e-003 2.35497966e-004 0.
      0. 1.91748468e-003 3.50111514e-001 3.08752894e-001 5.26801050e-002
      7.56128803e-002 1.90799087e-002 1.16150710e-003 2.08799447e-005
      4.34624351e-004 1.66820232e-002 3.08752894e-001 3.08752894e-001
      2.84475647e-002 5.42744473e-002 2.45304331e-002 8.13338459e-002
      4.36447151e-002 3.10119260e-002 7.47029781e-002 3.08752894e-001
      3.08752894e-001 2.48216875e-002 1.99589115e-002 7.56544899e-003
      5.32089695e-002 3.92493531e-002 3.53019126e-002 4.59597446e-002
      3.08752894e-001 3.02325279e-001 6.28761342e-003 2.98036938e-003
      2.92942580e-003 3.08752894e-001 2.15374500e-001 1.81771129e-001
      1.61388338e-001 3.08752894e-001 1.01381950e-001 2.05687098e-002
      6.03001267e-002 5.00110574e-002 4.13367987e-001 7.96459466e-002
      3.36699970e-002 6.30168021e-002 1.28090769e-001 1.55827799e-003
      5.14051877e-004 7.64166936e-003 6.12638704e-002 4.13367987e-001
      2.02778146e-001 4.94338339e-003 2.35056924e-003 1.93857169e-003
      1.06008224e-001 2.81916615e-002 3.25458460e-002 6.60289153e-002
      4.13367987e-001 1.94207236e-001 1.22436427e-001 1.12842858e-001
      1.46975473e-001 5.93886971e-002 3.67343165e-002 1.33926407e-001
      2.35796869e-001 4.13367987e-001 1.95702076e-001 1.05452957e-002
      1.71740707e-002 3.32366489e-002 4.70449030e-001 6.02104422e-003
      3.81219527e-003 0. 2.04892103e-002 2.85369288e-002 4.13734056e-002
      5.97439297e-002 4.70449030e-001 4.70449030e-001 1.39494473e-002
      5.74490242e-003 0. 5.53867780e-003 1.95279031e-003 7.14475801e-003
      2.33334377e-002 4.70449030e-001 2.28866395e-002 4.51920694e-003
      2.85914587e-003 0. 4.20374461e-002 4.78964336e-002 2.20705420e-001
      1.63395450e-001 5.85230216e-002 5.24130054e-002 1.56404134e-002
      6.31534494e-003 0. 1.91696621e-002 4.70318738e-003 5.05842939e-002
      7.23846778e-002 8.90021697e-002 3.00122857e-001 4.03046422e-003
      2.62278155e-003 7.41049240e-004 1.47055060e-001 8.93663689e-002
      9.78870094e-002 5.86872809e-002 3.00122857e-001 2.93306112e-001
      7.26425042e-003 3.60131403e-003 2.50750990e-003 3.00122857e-001
      3.00122857e-001 3.00122857e-001 3.00122857e-001 3.00122857e-001
      2.86393203e-002 9.93983820e-003 6.77863788e-003 2.64810049e-003
      5.25389351e-002 1.61191672e-002 3.94704156e-002 1.48222046e-002
      3.79619449e-002 1.38752177e-001 2.47157738e-002 2.80921999e-002
      1.94952842e-002 1.46507129e-001 6.20472543e-002 2.50526965e-001
      1.76998794e-001 3.00122857e-001 2.53534406e-001 4.26955968e-002
      4.49532829e-002 5.00050969e-002 2.38104254e-001 1.16252877e-001
      1.53055698e-001 1.61978841e-001 2.53534406e-001 2.45701104e-001
      8.36071670e-002 2.30552092e-001 2.53534406e-001 2.53534406e-001
      9.41640586e-002 7.45899417e-003 5.93090095e-002 1.98831633e-001
      2.26149470e-001 2.95493901e-002 5.70539609e-002 5.70344850e-002
      1.06978133e-001 4.59515341e-002 7.61749819e-002 1.15036316e-001
      2.53534406e-001 2.26890102e-001 5.29324189e-002 2.15812683e-001
      2.53534406e-001 2.53534406e-001 7.60854706e-002 2.08642171e-003
      7.65268058e-002 2.12562203e-001</_>
    <_>
      1.28720433e-001 3.81628238e-002 1.32557660e-001 1.32597402e-001
      2.74681330e-001 1.08404107e-001 2.34874308e-001 1.63265273e-001
      2.01665238e-001 2.62512237e-001 4.18727985e-003 1.21265035e-002
      2.98111718e-002 2.83110261e-001 7.27407336e-002 2.03936115e-001
      9.55102965e-002 2.82487750e-001 2.83110261e-001 2.85470542e-002
      1.20378561e-001 1.65544659e-001 2.06268758e-001 5.37250526e-002
      4.65088785e-002 8.88488293e-002 2.83110261e-001 2.83110261e-001
      3.15883495e-002 6.77744821e-002 3.50660384e-002 1.29571304e-001
      1.70605686e-002 5.84319979e-002 4.75225709e-002 2.83110261e-001
      2.85019755e-001 2.53317431e-002 7.22276196e-002 9.02402028e-002
      2.58451790e-001 8.34992714e-003 3.27751711e-002 1.61854737e-002
      2.58223861e-001 2.27100983e-001 1.48929089e-001 2.31643170e-001
      2.40266278e-001 2.85019755e-001 7.60942651e-003 1.09517453e-002
      6.74655987e-003 1.54210597e-001 2.85019755e-001 3.19460146e-002
      7.24683106e-002 2.96588074e-002 9.04912278e-002 1.60085980e-003
      1.32511761e-002 2.24359538e-002 2.85019755e-001 2.85019755e-001
      6.73056617e-002 1.70509502e-001 1.43084034e-001 2.85019755e-001
      3.64699140e-002 4.92709875e-003 4.36432287e-002 2.79904932e-001
      1.60930544e-001 1.21367738e-001 1.31484702e-001 1.59769148e-001
      3.94410461e-001 5.70675433e-002 8.35722685e-002 3.88985127e-002
      1.80174649e-001 4.55399752e-002 1.70166828e-002 9.72398091e-003
      2.34114245e-001 3.94410461e-001 1.84917316e-001 1.75482929e-001
      4.14510742e-002 9.15188044e-002 5.33695593e-002 4.61494401e-002
      1.06668152e-001 1.45668805e-001 3.94410461e-001 5.40221259e-002
      1.28364284e-002 2.29819287e-002 4.06979918e-002 2.40373076e-003
      6.01983396e-003 7.42944889e-003 2.11302415e-001 3.94410461e-001
      1.60664484e-001 2.00218167e-002 5.09194389e-004 2.81224097e-003
      3.50128472e-001 6.07987819e-003 2.35948376e-002 3.03611569e-002
      3.94273065e-002 9.49338078e-003 1.85550214e-003 2.58659851e-002
      3.50128472e-001 3.50128472e-001 5.45133799e-002 8.37303102e-002
      1.99941210e-002 1.55693467e-003 9.17764992e-005 7.44713063e-004
      1.70510523e-002 3.50128472e-001 3.50128472e-001 2.02216813e-003
      2.78274086e-003 1.41400058e-004 7.36617483e-004 2.19362060e-004
      8.62359419e-004 5.06445440e-003 3.50128472e-001 3.50128472e-001
      2.58418899e-002 2.18788181e-002 7.29221897e-003 4.80667426e-004
      2.48035591e-004 3.00270767e-004 5.88770583e-003 3.50128472e-001
      3.00014228e-001 4.77155335e-002 6.18924573e-002 1.93664283e-002
      8.14843550e-003 1.41124148e-003 4.52387007e-003 2.76835542e-002
      3.00014228e-001 3.00014228e-001 2.65822578e-002 6.85695559e-002
      3.48992497e-002 1.72658190e-001 7.09383413e-002 3.99286151e-002
      8.47153068e-002 3.00014228e-001 3.00014228e-001 2.09576599e-002
      1.46577926e-002 7.09678931e-003 1.23151012e-001 7.53656626e-002
      7.20026046e-002 7.96003044e-002 3.00014228e-001 2.23826304e-001
      9.58837848e-003 8.76477268e-003 1.63832754e-002 3.00014228e-001
      2.58222967e-001 1.98833749e-001 1.71857536e-001 3.00014228e-001
      4.34781499e-002 1.20860366e-002 4.38290536e-002 4.74143922e-002
      4.23461497e-001 7.24018067e-002 2.28670444e-002 3.80124077e-002
      5.70123903e-002 5.06150362e-004 0. 7.86871533e-004 6.01222627e-002
      4.23461497e-001 2.69069970e-001 3.13470862e-003 0. 5.06150362e-004
      8.41045976e-002 3.26005295e-002 5.34947179e-002 1.03127249e-001
      4.23461497e-001 1.43750653e-001 7.74005949e-002 7.47128054e-002
      9.06569362e-002 3.48822735e-002 2.52331235e-002 1.17032245e-001
      2.03443676e-001 4.23461497e-001 2.57850915e-001 1.89485855e-003
      5.51942503e-003 1.58676058e-002 4.80532616e-001 8.81628599e-003
      4.34678746e-003 0. 1.57962646e-002 1.61007699e-002 2.29364093e-002
      4.86117005e-002 4.80532616e-001 4.80532616e-001 1.33801810e-002
      6.25538500e-003 0. 5.54216187e-003 3.01993405e-003 1.01037864e-002
      3.14370617e-002 4.80532616e-001 3.01690754e-002 7.13157468e-003
      3.26009048e-003 0. 3.38247493e-002 2.59885397e-002 1.49468526e-001
      1.43460631e-001 6.93006441e-002 5.98726682e-002 1.71728507e-002
      8.31743330e-003 0. 1.65746938e-002 3.34370276e-003 3.36000063e-002
      4.94136550e-002 9.15975571e-002 2.84520477e-001 2.90960143e-003
      1.96925388e-003 1.00980815e-003 2.39376292e-001 1.35202900e-001
      1.71072364e-001 9.91738215e-002 2.84520477e-001 2.80781835e-001
      1.71336923e-002 1.37268249e-002 1.53435916e-002 2.84520477e-001
      2.84520477e-001 2.84520477e-001 2.84520477e-001 2.84520477e-001
      2.93812882e-002 1.04417568e-002 7.03474786e-003 3.60849616e-003
      7.19129443e-002 2.53676604e-002 7.53983110e-002 3.33321951e-002
      5.54225519e-002 1.94510818e-001 2.62892153e-002 4.10085209e-002
      2.85273176e-002 1.19983949e-001 5.62933050e-002 2.14280084e-001
      1.84582278e-001 2.84520477e-001 2.73053050e-001 6.14768602e-002
      9.19472501e-002 1.05852865e-001 2.27762267e-001 8.64225328e-002
      9.73200276e-002 1.31375000e-001 2.73053050e-001 1.73938587e-001
      7.00818449e-002 2.25492626e-001 2.73053050e-001 2.73053050e-001
      1.44416347e-001 1.31706859e-003 4.24746089e-002 1.12924471e-001
      2.63694793e-001 3.91703136e-002 8.94827992e-002 9.93864834e-002
      1.57118320e-001 5.42044006e-002 4.59089801e-002 1.06491238e-001
      2.73053050e-001 1.63638473e-001 4.73028980e-002 2.44243979e-001
      2.73053050e-001 2.73053050e-001 8.27326849e-002 5.66367060e-004
      6.15030862e-002 1.22886233e-001</_>
    <_>
      1.34818986e-001 2.09797919e-002 7.30158910e-002 1.01678230e-001
      2.96240479e-001 1.12881750e-001 2.59766161e-001 1.56049743e-001
      1.97532684e-001 2.96240479e-001 3.64633719e-003 1.50012011e-002
      2.89034825e-002 2.92690665e-001 4.57856916e-002 1.40927106e-001
      6.44434467e-002 2.96240479e-001 2.96240479e-001 2.66953260e-002
      9.94230583e-002 1.24455459e-001 1.90359488e-001 4.39994372e-002
      5.51422574e-002 8.26159716e-002 2.96240479e-001 2.96240479e-001
      3.00174206e-002 6.19669482e-002 2.01860536e-002 9.70291495e-002
      9.89380665e-003 4.56711389e-002 3.36122960e-002 2.96240479e-001
      2.86242932e-001 4.94344123e-002 1.19070150e-001 1.39915943e-001
      2.86242932e-001 2.40634382e-003 1.20853558e-002 7.51161389e-003
      2.27707192e-001 2.22784445e-001 1.71244964e-001 2.30576903e-001
      2.36455023e-001 2.86242932e-001 1.39551871e-002 2.36060750e-002
      1.54161146e-002 1.67854995e-001 2.86242932e-001 3.74672897e-002
      9.36112702e-002 4.88284342e-002 1.50405735e-001 6.30818447e-003
      6.96830032e-003 2.52374150e-002 2.86242932e-001 2.46008664e-001
      7.27347881e-002 1.75091773e-001 1.70647204e-001 2.86242932e-001
      4.48167212e-002 7.26289302e-003 4.36429679e-002 1.86067820e-001
      1.41074926e-001 9.36081260e-002 8.51149261e-002 1.54156268e-001
      4.04051036e-001 9.37565491e-002 1.21092297e-001 4.73478995e-002
      1.79255307e-001 1.94369052e-002 4.04842990e-003 2.09708419e-003
      2.37657771e-001 4.04051036e-001 1.80301040e-001 1.51351675e-001
      2.94445734e-002 5.15618622e-002 2.34395750e-002 3.41731943e-002
      6.92931414e-002 1.51941538e-001 4.04051036e-001 7.01103434e-002
      1.52655048e-002 1.33265350e-002 1.77026279e-002 9.66432330e-004
      1.61937193e-003 1.57281291e-003 2.07298115e-001 4.04051036e-001
      1.76134601e-001 1.90674681e-002 2.12703511e-004 1.50016334e-003
      3.50113362e-001 1.62950233e-002 3.75478119e-002 2.21102852e-002
      2.34498065e-002 5.44453971e-003 1.74233993e-003 2.57011000e-002
      3.50113362e-001 3.50113362e-001 5.54522723e-002 8.12415779e-002
      1.97192524e-002 6.76456431e-004 5.50680161e-005 3.83596693e-004
      1.47927785e-002 3.50113362e-001 3.50113362e-001 6.97110081e-003
      7.22487504e-003 1.29966496e-003 5.05328062e-004 8.31054858e-005
      2.88761657e-004 3.58359027e-003 3.50113362e-001 3.50113362e-001
      2.64382213e-002 2.16454845e-002 7.79798767e-003 9.81849059e-003
      1.48864286e-002 1.04583576e-002 2.01217532e-002 3.50113362e-001
      2.92458266e-001 3.71193625e-002 5.29569909e-002 1.59963630e-002
      2.52050068e-002 1.24404971e-002 1.28303329e-002 4.33254763e-002
      2.92458266e-001 2.25159049e-001 2.68731937e-002 7.44120032e-002
      5.14130071e-002 2.92458266e-001 8.81926864e-002 4.26457040e-002
      8.44310150e-002 2.66958505e-001 2.92458266e-001 1.29790958e-002
      8.75135697e-003 4.49068379e-003 2.17839167e-001 1.29039273e-001
      1.18973866e-001 1.15860552e-001 2.92458266e-001 1.67090550e-001
      1.91298928e-002 1.87731702e-002 3.65976430e-002 2.92458266e-001
      2.67055213e-001 1.88980490e-001 1.68899402e-001 2.67470181e-001
      1.51428916e-002 6.33825408e-003 2.53385603e-002 4.79387678e-002
      4.22093362e-001 9.07455385e-002 1.31562613e-002 1.95735022e-002
      2.19254885e-002 6.45083841e-004 0. 2.24120275e-004 5.54064661e-002
      4.22093362e-001 2.88749576e-001 4.12100321e-003 0. 6.45083841e-004
      7.14984313e-002 3.44865248e-002 7.38119781e-002 1.37523845e-001
      4.22093362e-001 1.13960251e-001 4.02364507e-002 4.62474450e-002
      6.00479022e-002 1.74995884e-002 1.53796831e-002 9.63689238e-002
      1.67417705e-001 4.22093362e-001 3.08667809e-001 4.72267915e-004 0.
      6.30448433e-003 4.80447739e-001 1.07927024e-002 4.17596521e-003 0.
      1.19742574e-002 7.39739323e-003 1.19044464e-002 3.81226130e-002
      4.80447739e-001 4.80447739e-001 1.24220205e-002 6.99219480e-003
      7.19738833e-004 9.68446061e-002 7.80948177e-002 4.96427678e-002
      6.21759556e-002 4.80447739e-001 3.90644893e-002 9.45255905e-003
      3.52374767e-003 0. 2.74313577e-002 1.25197945e-002 9.57197845e-002
      1.14192851e-001 7.84751475e-002 6.18280284e-002 1.90699622e-002
      1.23662567e-002 2.57194880e-003 5.58601394e-002 1.32731125e-002
      2.41132062e-002 3.34804654e-002 8.77498537e-002 2.50506073e-001
      2.11588223e-003 1.51506776e-003 1.13919622e-003 2.72409678e-001
      1.72638178e-001 2.32580632e-001 1.36806965e-001 2.72409678e-001
      2.72409678e-001 3.25073451e-002 2.65271682e-002 2.88249832e-002
      2.72409678e-001 2.40098044e-001 2.72409678e-001 2.72409678e-001
      2.72409678e-001 3.65950838e-002 1.12607125e-002 8.84223543e-003
      6.13488210e-003 8.30500126e-002 3.15771289e-002 1.06671482e-001
      5.77485934e-002 9.80515182e-002 2.57746547e-001 3.12736779e-002
      5.39076366e-002 4.33148555e-002 1.18271872e-001 5.70348799e-002
      1.64025456e-001 1.66927829e-001 2.72409678e-001 2.75226593e-001
      7.23270252e-002 1.35266975e-001 1.59606516e-001 2.69325197e-001
      5.63972369e-002 4.85160872e-002 9.77224931e-002 2.75226593e-001
      9.90305617e-002 4.88672778e-002 1.88689664e-001 2.75226593e-001
      2.75226593e-001 1.93760961e-001 4.18471929e-004 2.73359641e-002
      4.88710143e-002 2.61147916e-001 4.47234139e-002 1.27285436e-001
      1.45864993e-001 2.21270636e-001 5.83011396e-002 2.33059917e-002
      9.10918117e-002 2.75226593e-001 9.88892093e-002 3.59778106e-002
      2.23651350e-001 2.75226593e-001 2.75226593e-001 8.21757093e-002
      1.73848443e-004 4.34311703e-002 5.73723428e-002</_>
    <_>
      1.56996980e-001 7.51384534e-003 3.50194611e-002 7.46796727e-002
      3.11065644e-001 1.05033606e-001 2.52876908e-001 1.35436058e-001
      2.09413260e-001 3.11065644e-001 9.48354509e-003 3.86813730e-002
      5.04006036e-002 2.64405817e-001 2.49387790e-002 8.89774486e-002
      4.03591208e-002 3.11065644e-001 3.11065644e-001 2.34478135e-002
      7.65523687e-002 8.69807974e-002 1.74125358e-001 3.13379914e-002
      5.90319224e-002 6.30614907e-002 3.11065644e-001 3.11065644e-001
      3.08760107e-002 6.64065555e-002 1.89564750e-002 7.97363743e-002
      5.05705271e-003 3.25007848e-002 2.77395528e-002 3.11065644e-001
      2.70715386e-001 8.43956098e-002 1.70200244e-001 1.88315958e-001
      2.90309608e-001 2.78392667e-003 2.23097135e-003 2.98063131e-003
      1.90889105e-001 2.14179784e-001 1.73384249e-001 2.06771031e-001
      2.21403122e-001 2.90309608e-001 2.78533082e-002 4.90733236e-002
      2.98227556e-002 2.00167254e-001 2.90309608e-001 4.82449457e-002
      1.24330282e-001 8.03962871e-002 2.33757257e-001 1.45469140e-002
      1.63982308e-003 3.09403799e-002 2.90309608e-001 1.49223566e-001
      7.06902668e-002 1.61708876e-001 1.79983601e-001 2.90309608e-001
      5.23238741e-002 1.03141535e-002 3.94433215e-002 1.10812448e-001
      1.05980083e-001 6.09805733e-002 4.87554520e-002 1.74242988e-001
      4.11195755e-001 1.31883219e-001 1.54232055e-001 5.18787913e-002
      1.63255900e-001 9.36267711e-003 0. 0. 2.23665148e-001
      4.11195755e-001 1.63459733e-001 1.17711045e-001 1.73707064e-002
      2.34697890e-002 7.43229641e-003 2.21346933e-002 4.19909246e-002
      1.63949981e-001 4.11195755e-001 9.72847566e-002 1.81546677e-002
      7.21516553e-003 8.26829020e-003 1.24675373e-003 0. 0.
      1.95136920e-001 4.11195755e-001 1.79910049e-001 1.60938334e-002 0.
      1.24675373e-003 3.49366307e-001 2.81363986e-002 5.18074296e-002
      1.85942631e-002 1.18978359e-002 1.38135068e-003 1.53790705e-003
      2.01824587e-002 3.49366307e-001 3.49366307e-001 5.16271256e-002
      7.32153431e-002 1.90346725e-002 1.09385094e-003 2.30832120e-005
      4.34743153e-004 1.57019645e-002 3.49366307e-001 3.49366307e-001
      1.29504204e-002 1.22870281e-002 3.02063767e-003 3.14424105e-004 0.
      0. 2.55537964e-003 3.49366307e-001 3.49366307e-001 2.44965963e-002
      1.92816257e-002 7.55159371e-003 4.69478630e-002 3.22404988e-002
      2.99449731e-002 3.92503180e-002 3.49366307e-001 2.99559295e-001
      3.31875458e-002 5.68738058e-002 2.05590855e-002 5.31117432e-002
      3.18291970e-002 2.42122710e-002 6.42297789e-002 2.99559295e-001
      1.44925475e-001 2.48833448e-002 7.45701790e-002 6.31350651e-002
      2.99559295e-001 9.95776057e-002 4.14544456e-002 7.73172155e-002
      1.78338602e-001 2.99559295e-001 7.60265300e-003 4.87651443e-003
      2.84706918e-003 2.99559295e-001 1.97023138e-001 1.71269417e-001
      1.58778712e-001 2.99559295e-001 1.43737823e-001 3.52238342e-002
      3.85602303e-002 7.56931603e-002 2.99559295e-001 2.52507657e-001
      1.63496584e-001 1.48503914e-001 1.99629843e-001 2.60525895e-003
      2.99484492e-003 1.36021683e-002 4.76883985e-002 4.18201119e-001
      1.27750561e-001 7.43447198e-003 9.52090882e-003 5.65879093e-003
      8.38877750e-004 0. 0. 5.01798056e-002 4.18201119e-001
      2.92431951e-001 4.33688937e-003 0. 8.38877750e-004 6.04591519e-002
      3.39039601e-002 9.12001953e-002 1.65424466e-001 4.18201119e-001
      1.31235600e-001 1.80432387e-002 2.51217727e-002 3.75141762e-002
      6.81911875e-003 7.46065564e-003 7.41498172e-002 1.32576883e-001
      4.18201119e-001 3.25521737e-001 7.34023750e-004 0. 3.12132225e-003
      4.44838047e-001 1.14238532e-002 4.39778902e-003 0. 6.57248264e-003
      2.66160769e-003 6.12636888e-003 2.70897504e-002 4.44838047e-001
      4.44838047e-001 1.00192921e-002 6.12703897e-003 1.33013993e-003
      2.78744102e-001 1.63947999e-001 1.92139328e-001 1.14175737e-001
      4.44838047e-001 4.40192930e-002 1.12962257e-002 4.42425674e-003 0.
      1.86276399e-002 5.98906074e-003 5.70168532e-002 7.70548359e-002
      7.79039115e-002 6.45897016e-002 2.20922325e-002 1.41395032e-002
      4.75318404e-003 9.88822803e-002 3.03443335e-002 8.16477686e-002
      3.39282006e-002 8.52490962e-002 1.91701069e-001 1.82442565e-003
      1.27721613e-003 1.17987662e-003 2.72172928e-001 2.01882362e-001
      2.72172928e-001 1.76476508e-001 2.72172928e-001 2.72172928e-001
      5.69233857e-002 5.85220195e-002 6.45892546e-002 2.72172928e-001
      1.76671341e-001 2.38388345e-001 2.31925070e-001 2.72172928e-001
      5.43279685e-002 1.28157204e-002 1.28948940e-002 9.60428920e-003
      8.85201469e-002 3.55495028e-002 1.31721199e-001 8.29102099e-002
      1.73654616e-001 2.72172928e-001 4.06173207e-002 7.73651376e-002
      7.38696530e-002 1.44634515e-001 6.12835400e-002 1.16927668e-001
      1.58234447e-001 2.72172928e-001 2.65305489e-001 7.73072764e-002
      1.72413200e-001 2.14980736e-001 2.74869293e-001 6.81957304e-002
      1.53877195e-002 6.98978528e-002 2.46378228e-001 4.58359532e-002
      2.91106403e-002 1.44114241e-001 2.56333530e-001 2.74869293e-001
      2.08892897e-001 6.19207742e-004 1.78907122e-002 1.86846871e-002
      2.37740681e-001 4.70814109e-002 1.62865266e-001 2.17949688e-001
      2.74869293e-001 6.60009682e-002 6.32444816e-003 7.95685425e-002
      2.62013316e-001 5.21084331e-002 2.55964547e-002 2.00591758e-001
      2.74869293e-001 2.74869293e-001 7.64905810e-002 7.11882240e-005
      2.67137978e-002 2.57144123e-002</_>
    <_>
      1.95295230e-001 4.03868454e-003 1.92475524e-002 4.04420383e-002
      3.13412338e-001 8.35294053e-002 2.22187072e-001 1.06237046e-001
      2.24278241e-001 3.13412338e-001 2.80261375e-002 7.31884092e-002
      9.38299447e-002 2.91737527e-001 1.10478457e-002 4.49338704e-002
      2.15585176e-002 3.08173567e-001 3.13412338e-001 2.43510250e-002
      6.40015006e-002 4.41535860e-002 1.38440654e-001 2.04403307e-002
      5.63799888e-002 4.86536399e-002 3.13412338e-001 3.13412338e-001
      3.69852968e-002 8.08821619e-002 3.15596350e-002 1.00006148e-001
      2.13838671e-003 1.94007587e-002 2.68519949e-002 3.13412338e-001
      2.40944743e-001 1.18408382e-001 2.04852372e-001 2.13577881e-001
      2.98025340e-001 3.73249338e-003 7.00167497e-004 2.72932043e-003
      1.57271028e-001 1.87804624e-001 1.46448955e-001 1.56324804e-001
      1.95123956e-001 2.98025340e-001 6.08479008e-002 9.70639512e-002
      4.42865267e-002 2.11602017e-001 2.98025340e-001 5.80248721e-002
      1.47090688e-001 1.09141842e-001 2.98025340e-001 2.36897320e-002
      2.15551700e-003 3.68960388e-002 2.98025340e-001 7.23529384e-002
      5.72525039e-002 1.26024961e-001 1.72574863e-001 2.98025340e-001
      5.95234782e-002 1.53908264e-002 2.94920355e-002 5.42079024e-002
      6.98693246e-002 3.03115174e-002 2.52858251e-002 2.05095217e-001
      4.16921228e-001 1.65541440e-001 1.75166547e-001 4.96981628e-002
      1.24561064e-001 6.09122543e-003 0. 0. 1.90589741e-001
      4.16921228e-001 1.51508436e-001 7.81560168e-002 7.57059362e-003
      1.05789723e-002 3.21055157e-003 9.90575366e-003 1.93266533e-002
      1.83628410e-001 4.16921228e-001 1.30261093e-001 2.03475207e-002
      1.29873061e-003 3.53286671e-003 3.05494643e-003 0. 0.
      1.65500492e-001 4.16921228e-001 1.76677480e-001 1.22375702e-002 0.
      3.05494643e-003 3.45979542e-001 4.02076356e-002 6.64243698e-002
      1.51755083e-002 2.14700634e-003 1.25835693e-004 9.67926055e-004
      1.70244798e-002 3.45979542e-001 3.45979542e-001 4.60620485e-002
      6.24182597e-002 1.77281331e-002 7.05974922e-003 1.27974409e-003
      4.00569709e-003 2.53384188e-002 3.45979542e-001 3.45979542e-001
      1.89120043e-002 1.69729125e-002 4.89113666e-003 1.82512405e-004 0.
      0. 1.38954190e-003 3.45979542e-001 3.45979542e-001 2.01901253e-002
      1.51400724e-002 6.52151462e-003 1.02051288e-001 6.56703040e-002
      6.12526201e-002 7.41772875e-002 3.45979542e-001 3.12273830e-001
      2.91045215e-002 5.99324554e-002 2.87751388e-002 9.27035287e-002
      5.24529070e-002 3.35226841e-002 7.82662779e-002 3.12273830e-001
      7.15539977e-002 1.84492953e-002 6.06002510e-002 6.56734407e-002
      3.12273830e-001 9.68473479e-002 3.27218957e-002 5.68428524e-002
      9.25455615e-002 3.12273830e-001 6.87956810e-003 3.31471139e-003
      3.27942939e-003 3.12273830e-001 2.42270231e-001 1.98725030e-001
      1.79635122e-001 3.12273830e-001 1.20004401e-001 4.56784442e-002
      7.27609843e-002 1.42302528e-001 3.12273830e-001 1.99770123e-001
      1.13634273e-001 1.07536063e-001 1.33345827e-001 0. 3.68300942e-004
      5.39040333e-003 4.87907566e-002 4.16468620e-001 1.79144979e-001
      3.88709735e-003 1.68410444e-003 2.72467616e-004 2.05293647e-003 0.
      0. 4.30893637e-002 4.16468620e-001 2.72228390e-001 4.16980917e-003
      0. 2.05293647e-003 4.19108532e-002 2.82657780e-002 1.00826323e-001
      1.80938482e-001 4.16468620e-001 1.75489977e-001 7.27807079e-003
      1.09066758e-002 2.21204460e-002 4.18573851e-003 2.97851884e-003
      5.10219894e-002 1.08547956e-001 4.16468620e-001 3.16552132e-001
      7.87653145e-004 0. 2.76437961e-003 3.78031909e-001 1.01450942e-002
      3.86477937e-003 0. 3.25945299e-003 7.85780314e-004 4.37544007e-003
      1.39417285e-002 3.78031909e-001 3.78031909e-001 6.52084267e-003
      4.51615173e-003 1.95462047e-003 3.78031909e-001 2.60461628e-001
      3.15930575e-001 2.04013467e-001 3.78031909e-001 4.19641882e-002
      1.13993427e-002 4.56237886e-003 0. 1.22891963e-002 2.46771635e-003
      3.08842529e-002 4.34202701e-002 6.68904707e-002 6.11724891e-002
      2.10363232e-002 1.45466002e-002 6.98473351e-003 1.39454439e-001
      4.87956889e-002 1.37741610e-001 6.54424950e-002 1.14404663e-001
      1.69610947e-001 4.40222071e-003 2.24224501e-003 1.49482838e-003
      2.66342849e-001 2.09640473e-001 2.66342849e-001 1.99457824e-001
      2.66342849e-001 2.66342849e-001 7.83661157e-002 1.12937242e-001
      1.31480724e-001 2.66342849e-001 1.18021935e-001 1.44522920e-001
      1.79715499e-001 2.66342849e-001 8.64349380e-002 1.46353664e-002
      1.80467702e-002 1.24652535e-002 8.51723254e-002 3.53902616e-002
      1.41186714e-001 9.97168571e-002 2.66342849e-001 2.66342849e-001
      4.88804169e-002 1.11116558e-001 1.19012572e-001 1.90223143e-001
      7.16755167e-002 7.10931793e-002 1.45742446e-001 2.66342849e-001
      2.16321006e-001 7.61058778e-002 2.02726632e-001 2.67250836e-001
      2.93213457e-001 1.03239864e-001 6.06293278e-003 5.12923338e-002
      1.65092066e-001 1.85436551e-002 1.41518740e-002 9.92533565e-002
      2.48859763e-001 2.93213457e-001 2.09920883e-001 6.75295480e-004
      9.63260233e-003 8.40307400e-003 2.00176194e-001 4.84445952e-002
      2.02120423e-001 2.93213457e-001 2.93213457e-001 7.74608105e-002
      1.72466540e-003 7.04454035e-002 1.75027594e-001 2.14576740e-002
      1.62713546e-002 1.69047415e-001 2.93213457e-001 2.93213457e-001
      6.70800731e-002 0. 1.28434664e-002 1.18840570e-002</_>
    <_>
      2.94520587e-001 8.98447540e-003 3.94633710e-002 5.17246872e-002
      2.14527220e-001 1.67919602e-002 6.07553460e-002 2.76270285e-002
      2.83673257e-001 2.52296716e-001 1.24074705e-001 2.11447701e-001
      2.22754225e-001 2.94520587e-001 3.53071233e-003 8.63967231e-004
      3.02430335e-003 1.70737296e-001 2.94520587e-001 2.76900884e-002
      6.25892058e-002 1.82486791e-002 6.17612638e-002 3.20816762e-003
      2.46432517e-002 2.26721745e-002 2.94520587e-001 2.94520587e-001
      6.28924519e-002 1.53252885e-001 1.10056266e-001 2.94520587e-001
      2.24005710e-002 2.02496210e-003 4.17509340e-002 2.94520587e-001
      1.79782659e-001 1.50630042e-001 1.71256319e-001 1.89215586e-001
      3.79749835e-001 2.72801705e-002 4.82518449e-002 2.84445044e-002
      1.71132073e-001 8.33155587e-002 3.82653065e-002 3.12471353e-002
      2.01281071e-001 3.79749835e-001 1.80589616e-001 1.89922154e-001
      5.24231978e-002 1.39123544e-001 1.14865042e-001 6.22403771e-002
      1.39039800e-001 1.58509463e-001 3.79749835e-001 4.72893268e-002
      9.74418223e-003 3.62857617e-002 8.59131664e-002 4.09065140e-003
      1.24696949e-002 2.39011254e-002 1.84975311e-001 3.79749835e-001
      1.31844863e-001 2.13609785e-002 1.54167099e-003 4.26238636e-003
      6.69410219e-003 0. 0. 2.31436685e-001 4.13601875e-001
      1.79515123e-001 1.22606173e-001 1.51383849e-002 1.88409705e-002
      4.44982899e-003 0. 0. 5.08362614e-002 4.13601875e-001
      2.59392619e-001 8.63258203e-004 0. 4.44982899e-003 0. 0. 0.
      2.02511415e-001 4.13601875e-001 1.92322284e-001 1.68400425e-002 0.
      0. 3.06269876e-003 0. 0. 4.01704051e-002 4.13601875e-001
      2.45607644e-001 2.30823434e-003 0. 3.06269876e-003 3.08757365e-001
      5.26787862e-002 7.56109804e-002 1.90794300e-002 1.12374255e-003 0.
      4.34613437e-004 1.65941082e-002 3.08757365e-001 3.08757365e-001
      2.84468513e-002 5.42730875e-002 2.45298184e-002 8.13318044e-002
      4.36436199e-002 3.10111456e-002 7.47011006e-002 3.08757365e-001
      3.08757365e-001 2.48210654e-002 1.99584104e-002 7.56525900e-003
      5.32076359e-002 3.92483659e-002 3.53010260e-002 4.58775125e-002
      3.08757365e-001 3.02317709e-001 6.28745556e-003 2.98029464e-003
      2.92935222e-003 3.08757365e-001 2.15369105e-001 1.81766570e-001
      1.61384284e-001 3.08757365e-001 1.00492902e-001 2.03883387e-002
      5.97713366e-002 4.95724976e-002 4.13189560e-001 7.89475068e-002
      3.33747379e-002 6.24641925e-002 1.26967505e-001 0. 5.09544043e-004
      7.57465744e-003 6.07266314e-002 4.13189560e-001 2.08474502e-001
      4.90003359e-003 2.32995651e-003 3.76958662e-004 1.05078608e-001
      2.79444400e-002 3.22604440e-002 6.54498935e-002 4.13189560e-001
      1.92504182e-001 1.21362753e-001 1.11853309e-001 1.45686612e-001
      5.69867417e-002 3.64121832e-002 1.32751986e-001 2.34434038e-001
      4.13189560e-001 2.01562062e-001 1.06066326e-002 1.70234665e-002
      3.10640242e-002 0. 0. 0. 5.03407381e-002 4.10249054e-001
      2.96199054e-001 4.22639539e-003 0. 0. 1.32488180e-003 0. 0.
      2.48999912e-002 4.10249054e-001 2.00854674e-001 1.69055804e-003 0.
      1.32488180e-003 4.11539013e-003 6.44530496e-003 7.60124400e-002
      1.42129645e-001 4.10249054e-001 3.27188760e-001 6.79916353e-004 0.
      1.15258270e-003 2.03133188e-003 0. 5.10240858e-003 1.60084188e-001
      4.10249054e-001 1.80767536e-001 5.09937236e-004 0. 2.03133188e-003
      3.00146759e-001 3.92602338e-003 2.62272311e-003 7.41032767e-004
      1.47051781e-001 8.93643871e-002 9.78613570e-002 5.81823401e-002
      3.00146759e-001 2.93299586e-001 7.26408930e-003 3.60123394e-003
      2.50745425e-003 3.00146759e-001 3.00146759e-001 3.00146759e-001
      3.00146759e-001 3.00146759e-001 2.97286976e-002 9.80048347e-003
      6.77848747e-003 2.64804182e-003 5.23698367e-002 1.60644874e-002
      3.83938514e-002 1.42024821e-002 3.82453017e-002 1.38749078e-001
      2.47152224e-002 2.80915760e-002 1.94948502e-002 1.46503881e-001
      6.20458759e-002 2.50521392e-001 1.76994860e-001 3.00146759e-001
      2.54347175e-001 4.26081307e-002 4.48611975e-002 4.99026589e-002
      2.37616479e-001 1.16014726e-001 1.52742162e-001 1.61647022e-001
      2.54347175e-001 2.43578255e-001 8.34358931e-002 2.30079785e-001
      2.54347175e-001 2.54347175e-001 9.92239714e-002 7.55783776e-003
      5.91875128e-002 1.96804792e-001 2.25686193e-001 2.94888560e-002
      5.69370836e-002 5.69176488e-002 1.06758989e-001 4.58573960e-002
      7.60189295e-002 1.14800669e-001 2.54347175e-001 2.22939685e-001
      5.35799675e-002 2.20328465e-001 2.54347175e-001 2.54347175e-001
      7.94748813e-002 2.08214764e-003 7.63700306e-002 2.08641127e-001
      3.36406231e-002 2.36439910e-002 1.35922074e-001 2.61703908e-001
      3.40858668e-001 1.94157645e-001 5.44548675e-004 1.50034325e-002
      1.32280486e-002 5.05455397e-003 0. 4.60463902e-003 3.40858668e-001
      3.40858668e-001 1.00494981e-001 4.00687073e-004 0. 5.05455397e-003
      3.45700756e-002 2.12069992e-002 1.89351529e-001 3.40858668e-001
      3.40858668e-001 6.76227659e-002 6.17950282e-005 2.24867817e-002
      1.48049155e-002 7.03835255e-003 2.80492706e-003 5.08030355e-002
      3.40858668e-001 3.40858668e-001 2.98941247e-002 0. 0.
      7.03835255e-003</_>
    <_>
      2.86000401e-001 2.54362151e-002 7.25254938e-002 9.06123668e-002
      2.42308915e-001 2.68746004e-003 2.29004938e-002 1.22429933e-002
      2.65617818e-001 2.28037611e-001 1.49543315e-001 2.32598498e-001
      2.41257176e-001 2.86000401e-001 7.64080929e-003 1.09969126e-002
      6.77438406e-003 1.54846579e-001 2.86000401e-001 3.20777670e-002
      7.27671906e-002 2.97811255e-002 8.20713267e-002 5.90756012e-004
      1.30547779e-002 2.24445872e-002 2.86000401e-001 2.86000401e-001
      6.75832406e-002 1.71212718e-001 1.43674135e-001 2.86000401e-001
      3.66203226e-002 4.94741881e-003 4.38232236e-002 2.81059355e-001
      1.60355791e-001 1.20934270e-001 1.31015107e-001 1.59198537e-001
      3.94915164e-001 5.68637289e-002 8.32737982e-002 3.87595892e-002
      1.79531157e-001 4.49054167e-002 1.69559084e-002 9.68925282e-003
      2.33619690e-001 3.94915164e-001 1.85793385e-001 1.74856201e-001
      4.13030311e-002 9.07200277e-002 5.31789511e-002 4.59846184e-002
      1.06287196e-001 1.45148560e-001 3.94915164e-001 5.38291894e-002
      1.27905849e-002 2.28998512e-002 4.05526422e-002 1.98737439e-003
      5.99833485e-003 7.40291504e-003 2.10713446e-001 3.94915164e-001
      1.61339685e-001 1.99503098e-002 5.07375808e-004 2.39442592e-003
      2.49232608e-003 0. 0. 2.04484284e-001 4.01001990e-001
      1.68573916e-001 6.96928799e-002 6.52222428e-003 6.57543028e-003
      2.22450867e-003 0. 0. 1.31506911e-002 4.01001990e-001
      3.49407673e-001 2.67446478e-004 0. 2.22450867e-003 0. 0. 0.
      1.78206503e-001 4.01001990e-001 2.04910785e-001 1.17700603e-002 0.
      0. 1.90125615e-003 0. 0. 1.05926534e-002 4.01001990e-001
      2.85184294e-001 9.78008728e-004 0. 1.90125615e-003 3.00018996e-001
      4.77141030e-002 6.18906021e-002 1.93658471e-002 8.14819150e-003
      1.41119922e-003 4.48250724e-003 2.76689492e-002 3.00018996e-001
      3.00018996e-001 2.65814625e-002 6.85674995e-002 3.48982029e-002
      1.72653019e-001 7.09362179e-002 3.99274193e-002 8.47127661e-002
      3.00018996e-001 3.00018996e-001 2.08335835e-002 1.46573540e-002
      7.09657650e-003 1.23147324e-001 7.53634050e-002 7.20004514e-002
      7.95979202e-002 3.00018996e-001 2.23819599e-001 9.58809070e-003
      8.76451004e-003 1.63827837e-002 3.00018996e-001 2.58215249e-001
      1.98827788e-001 1.71852395e-001 3.00018996e-001 4.31713499e-002
      1.20007535e-002 4.35197800e-002 4.70798165e-002 4.23890799e-001
      7.18909130e-002 2.27056853e-002 3.77441794e-002 5.66100888e-002 0.
      0. 7.81319046e-004 5.99655956e-002 4.23890799e-001 2.68140465e-001
      3.11258878e-003 0. 0. 8.35111290e-002 3.23704891e-002
      5.31172380e-002 1.02399543e-001 4.23890799e-001 1.42736301e-001
      7.68544227e-002 7.41856024e-002 9.00172293e-002 3.35618109e-002
      2.50550695e-002 1.16206430e-001 2.03023493e-001 4.23890799e-001
      2.59139717e-001 1.88148755e-003 5.48047759e-003 1.46813169e-002 0.
      0. 0. 4.64524962e-002 4.10358429e-001 3.08263481e-001
      4.41791909e-003 0. 0. 1.68546243e-003 0. 0. 3.03768516e-002
      4.10358429e-001 1.79156378e-001 7.36319809e-004 0. 1.68546243e-003
      1.35969743e-003 2.57594604e-003 4.71527576e-002 1.19827390e-001
      4.10358429e-001 3.43492240e-001 8.03312461e-004 0. 0.
      4.05220175e-003 0. 4.77124611e-003 2.03413248e-001 4.10358429e-001
      1.26823127e-001 3.21324973e-004 0. 4.05220175e-003 2.84535795e-001
      2.46519246e-003 1.96916959e-003 1.00976496e-003 2.39346758e-001
      1.35197103e-001 1.71018779e-001 9.91541147e-002 2.84535795e-001
      2.80769825e-001 1.71329603e-002 1.37262382e-002 1.53429359e-002
      2.84535795e-001 2.84535795e-001 2.84535795e-001 2.84535795e-001
      2.84535795e-001 2.98677068e-002 1.01856152e-002 7.03444751e-003
      3.60834179e-003 7.17521682e-002 2.53665764e-002 7.52793998e-002
      3.24210897e-002 5.60223348e-002 1.94502503e-001 2.62880903e-002
      4.10067663e-002 2.85260975e-002 1.19978823e-001 5.62908947e-002
      2.14270920e-001 1.84574381e-001 2.84535795e-001 2.75037169e-001
      6.10769652e-002 9.13491547e-002 1.05164304e-001 2.26280719e-001
      8.58603641e-002 9.66869742e-002 1.30520418e-001 2.75037169e-001
      1.71620950e-001 6.96259737e-002 2.24025831e-001 2.75037169e-001
      2.75037169e-001 1.44760221e-001 1.30850135e-003 4.21983153e-002
      1.11003734e-001 2.61979520e-001 3.89155187e-002 8.89007300e-002
      9.87399966e-002 1.56096280e-001 5.38518094e-002 4.56103496e-002
      1.05798528e-001 2.75037169e-001 1.60403863e-001 4.69952039e-002
      2.42782012e-001 2.75037169e-001 2.75037169e-001 8.21945220e-002
      5.62682922e-004 6.11030199e-002 1.19916707e-001 1.10798124e-002
      1.04022129e-002 7.62673616e-002 2.40871504e-001 3.51681739e-001
      1.89367637e-001 5.85475995e-004 6.78638229e-003 2.61641922e-003
      6.03842176e-003 0. 5.25687216e-003 3.51681739e-001 3.51681739e-001
      6.16682880e-002 2.34190375e-004 0. 6.03842176e-003 1.15632042e-002
      1.27425501e-002 1.46999344e-001 3.51681739e-001 3.51681739e-001
      5.93882650e-002 0. 9.04850755e-003 3.48855881e-003 5.82106132e-003
      1.55133987e-003 3.12270932e-002 3.51681739e-001 3.51681739e-001
      1.64686274e-002 0. 0. 5.82106132e-003</_>
    <_>
      7.30418041e-002 5.99508695e-002 2.93515593e-001 2.81396151e-001
      2.96923399e-001 5.47184460e-002 4.81971866e-003 4.01593335e-002
      9.40011516e-002 2.96923399e-001 2.96926741e-002 1.28694162e-001
      1.65581584e-001 2.11514339e-001 4.29930538e-002 2.51023490e-002
      7.42986277e-002 2.96923399e-001 2.96923399e-001 3.86233553e-002
      7.32666105e-002 8.12546760e-002 2.56456703e-001 4.82729934e-002
      1.52298380e-002 9.77479070e-002 2.96923399e-001 2.96923399e-001
      9.85368062e-003 2.13276390e-002 2.81133335e-002 3.52458395e-002
      9.40788165e-003 9.17785452e-004 2.31643170e-002 2.96923399e-001
      3.43823254e-001 2.26854067e-002 5.91175854e-002 4.19098139e-002
      1.19715855e-001 9.12856497e-003 3.83585431e-002 3.81857380e-002
      3.43823254e-001 3.43823254e-001 3.21472958e-002 6.89122602e-002
      2.21926961e-002 7.85719007e-002 3.38879996e-004 1.40233031e-002
      2.05169246e-002 3.43823254e-001 3.43823254e-001 4.37479019e-002
      6.39495179e-002 1.66194923e-002 3.06603708e-003 3.40001308e-004
      4.09713481e-004 1.27847521e-002 3.43823254e-001 3.43823254e-001
      5.00555225e-002 6.10979348e-002 1.84274837e-002 1.39601557e-002
      7.51470122e-003 1.27536962e-002 3.50380465e-002 3.43823254e-001
      3.35422188e-001 6.15811385e-002 1.50081307e-001 1.11610383e-001
      3.35422188e-001 2.66805794e-002 2.65246211e-003 4.10198532e-002
      3.35422188e-001 7.91841075e-002 5.47227301e-002 1.24663234e-001
      1.84217304e-001 3.35422188e-001 5.72319292e-002 3.85319232e-003
      3.18868347e-002 5.83133772e-002 3.35422188e-001 2.65240632e-002
      5.00070602e-002 2.11876053e-002 1.30771801e-001 9.42462385e-002
      6.79020286e-002 1.07997753e-001 3.35422188e-001 7.58536234e-002
      1.95558425e-002 5.36477454e-002 7.23654106e-002 3.35422188e-001
      1.41968608e-001 5.58706634e-002 7.20922202e-002 1.13279454e-001
      3.83611709e-001 2.37548109e-002 7.51673151e-003 6.76956400e-003
      8.07239637e-002 3.59403118e-002 4.40865718e-002 1.98381796e-001
      3.83611709e-001 3.83611709e-001 6.89189788e-003 4.86422330e-003
      1.20878872e-003 2.18321150e-003 6.34345226e-004 2.33381265e-003
      1.14955585e-002 3.83611709e-001 2.15761408e-001 3.72817565e-004
      1.11560803e-003 0. 1.22139016e-002 6.91450760e-002 9.85055566e-002
      8.89218673e-002 2.36702770e-001 3.34824711e-001 4.48323553e-003
      2.15767440e-003 0. 1.01464456e-002 1.32797025e-002 2.24847402e-002
      3.05717643e-002 3.44341993e-001 3.61625701e-001 2.22371705e-002
      1.87694952e-002 5.10935253e-003 2.59855646e-004 0. 0.
      2.56784842e-003 3.61625701e-001 3.61625701e-001 2.35006921e-002
      1.67804714e-002 6.81246817e-003 1.42749384e-001 9.00835767e-002
      8.23994204e-002 9.44341496e-002 3.61625701e-001 3.04380327e-001
      6.14285842e-003 2.64564855e-003 0. 2.19706167e-003 8.66910617e-004
      4.53845691e-003 9.55150835e-003 2.88497597e-001 2.61640370e-001
      4.76001063e-003 3.16934986e-003 1.52535329e-003 1.99856743e-001
      1.08731680e-001 1.52610645e-001 8.76716971e-002 3.16325516e-001
      2.28308156e-001 4.64808615e-003 2.30154186e-003 2.08422774e-003
      2.71260738e-001 1.84853420e-001 1.53637782e-001 1.32141709e-001
      2.71260738e-001 1.05236702e-001 3.52728330e-002 4.55271527e-002
      8.61970559e-002 2.71260738e-001 1.48612365e-001 8.75538141e-002
      8.07251558e-002 1.12163529e-001 1.46354243e-001 4.81449766e-003
      3.69623746e-003 2.75768666e-003 2.71260738e-001 1.60177708e-001
      2.71260738e-001 1.89035997e-001 2.71260738e-001 2.71260738e-001
      7.48211145e-002 8.48152339e-002 8.31889957e-002 2.15967685e-001
      9.18732136e-002 1.33354723e-001 1.87439427e-001 2.71260738e-001
      1.34166013e-002 4.81292227e-004 1.44020433e-003 0. 1.69548616e-002
      1.47634625e-001 3.82069916e-001 2.09611282e-001 3.24570015e-002
      2.23920923e-002 7.19805388e-003 2.78546917e-003 0. 1.63097642e-002
      3.87439504e-002 2.14394540e-001 1.90266252e-001 7.37378672e-002
      2.57574413e-002 7.28527084e-003 4.44263732e-003 0. 9.01665092e-002
      2.68144980e-002 3.82069916e-001 3.82069916e-001 1.57814428e-001
      2.53797248e-002 2.84221838e-003 1.77705474e-003 0. 7.11606964e-002
      8.48687068e-003 3.82069916e-001 3.82069916e-001 2.62347549e-001
      8.49013403e-002 2.43808832e-002 9.99813527e-003 0. 1.10903205e-002
      6.78237854e-003 7.87546113e-002 1.36348546e-001 1.60636231e-001
      1.54123411e-001 5.45522794e-002 4.34238762e-002 1.50968125e-002
      2.45657042e-001 9.33204368e-002 2.63153076e-001 1.35878101e-001
      2.81415671e-001 2.79022306e-001 4.92697721e-003 1.07401959e-003 0.
      6.17910586e-002 3.59379523e-003 1.44151971e-001 3.30238551e-001
      3.30238551e-001 3.30238551e-001 3.30238551e-001 1.13954887e-001
      4.29659197e-003 5.07749356e-002 5.64057799e-003 2.38297489e-002
      9.62574035e-002 3.30238551e-001 1.23876788e-001 2.76194904e-002
      3.15214880e-002 1.78815201e-002 9.56369266e-002 4.46521118e-002
      1.79696903e-001 1.38067976e-001 3.04987192e-001 3.04987192e-001
      8.37751329e-002 1.77009165e-001 1.62526071e-001 2.08385035e-001
      9.95114222e-002 9.32096615e-002 2.13245049e-001 3.04987192e-001
      2.18278289e-001 2.70531774e-001 8.03655833e-002 1.38588073e-002
      2.39160415e-002 6.48811553e-003 3.77639979e-002 4.86532003e-002
      1.05743647e-001 2.17880160e-001 3.04987192e-001 3.04987192e-001
      1.98289663e-001 1.49817944e-001 3.51362377e-002 3.79231311e-002
      7.29662850e-002 1.39255434e-001</_>
    <_>
      2.32269242e-001 3.05734891e-002 1.36145860e-001 1.74912393e-001
      1.98757455e-001 4.76356037e-002 1.72743145e-002 6.82832375e-002
      2.77531624e-001 3.46444875e-001 2.78365668e-002 7.67837986e-002
      5.61524518e-002 1.44824028e-001 1.17865270e-002 4.66838889e-002
      4.91780005e-002 3.46444875e-001 3.46444875e-001 9.70394909e-003
      1.48436166e-002 3.44939828e-002 4.34911549e-002 1.25053236e-002
      7.31081876e-004 2.09564362e-002 3.46444875e-001 3.46444875e-001
      4.99924347e-002 7.72734284e-002 1.84162334e-002 3.94198857e-003
      4.37137962e-004 5.48311335e-004 1.64291039e-002 3.46444875e-001
      3.19790483e-001 2.84025930e-002 6.34142160e-002 1.51979160e-002
      5.61913028e-002 8.36009393e-004 2.02839952e-002 1.96854044e-002
      3.19790483e-001 3.19790483e-001 5.57762273e-002 1.30029976e-001
      9.26306397e-002 3.08420211e-001 2.08226759e-002 2.05062656e-003
      3.82249691e-002 3.19790483e-001 3.19790483e-001 5.92583492e-002
      7.63196722e-002 2.09292807e-002 4.68113599e-003 3.49898799e-003
      5.11061819e-003 2.21084207e-002 3.19790483e-001 3.19790483e-001
      2.46588979e-002 4.32517193e-002 1.71735771e-002 1.10702917e-001
      7.60603547e-002 5.97786494e-002 9.65859815e-002 3.19790483e-001
      1.04429431e-001 5.04794531e-002 1.13799848e-001 1.40401572e-001
      4.42391366e-001 4.19864655e-002 3.25684645e-003 3.27157825e-002
      7.86437243e-002 2.32189032e-003 8.30203760e-003 1.89085081e-002
      1.63944304e-001 4.42391366e-001 1.14679515e-001 2.35644542e-003
      7.52350257e-004 1.03219075e-003 9.58547518e-002 1.82615016e-002
      4.75611426e-002 4.65540811e-002 4.42391366e-001 1.14316113e-001
      5.36735319e-002 7.30505362e-002 1.40872002e-001 3.02400719e-003
      2.45886762e-003 9.91677213e-003 7.57605731e-002 4.42391366e-001
      2.36917272e-001 6.28438126e-003 4.28054621e-003 2.23990018e-003
      3.90732288e-001 6.98454678e-003 2.26083794e-003 1.83747965e-003
      2.61684880e-003 8.21311201e-004 2.93398509e-003 1.14400452e-002
      3.90732288e-001 3.90732288e-001 2.43180301e-002 2.19427254e-002
      5.16155502e-003 3.54700751e-004 0. 0. 3.18920612e-003
      3.90732288e-001 2.72295892e-001 2.79464968e-003 1.79850881e-003 0.
      1.01195704e-002 1.55950040e-002 2.55615190e-002 2.83336025e-002
      2.84903139e-001 3.44647646e-001 6.75339578e-003 2.89476849e-003 0.
      2.83921557e-003 1.17444061e-003 5.42376935e-003 1.15694134e-002
      3.28571349e-001 2.83260792e-001 2.17854623e-002 1.66373812e-002
      5.95571566e-003 5.72878383e-002 4.06110622e-002 3.51520590e-002
      4.37443294e-002 2.83260792e-001 2.83260792e-001 5.66141447e-003
      2.75259279e-003 2.47761002e-003 2.83260792e-001 2.19723567e-001
      1.88219994e-001 1.58737212e-001 2.83260792e-001 2.14302391e-001
      3.83004965e-003 2.46307184e-003 7.89257407e-004 9.20476243e-002
      5.10236584e-002 6.34482950e-002 3.10828146e-002 2.27580816e-001
      1.75795779e-001 5.71131520e-003 4.12153313e-003 3.18366638e-003
      2.83260792e-001 1.95312366e-001 2.83260792e-001 2.33541429e-001
      2.83260792e-001 8.61124545e-002 2.20995620e-002 2.65638717e-002
      4.90596294e-002 2.94925302e-001 1.49975017e-001 9.72260088e-002
      8.67412463e-002 1.14865445e-001 5.04174270e-002 2.98563726e-002
      1.13859482e-001 1.83195412e-001 2.94925302e-001 1.47415161e-001
      7.79562956e-003 1.31522315e-002 2.80984063e-002 2.94925302e-001
      4.37232740e-002 4.62085158e-002 4.43964340e-002 1.91587806e-001
      9.47207287e-002 1.53943986e-001 1.78640738e-001 2.94925302e-001
      2.94925302e-001 9.24203396e-002 2.32514888e-001 2.94925302e-001
      2.94925302e-001 8.66250545e-002 5.99965220e-003 7.71496743e-002
      2.61516035e-001 3.48546244e-002 6.47620577e-003 3.67475022e-003 0.
      2.53603570e-002 7.14670345e-002 3.59277904e-001 2.76113212e-001
      9.36742201e-002 7.77494609e-002 2.22346578e-002 8.73073284e-003 0.
      1.08318226e-002 7.28595909e-003 7.96916336e-002 1.35691747e-001
      1.51351556e-001 4.99114171e-002 4.53342590e-003 3.46026663e-003 0.
      9.73263830e-002 1.47270914e-002 3.67316544e-001 3.67316544e-001
      2.88392723e-001 2.43775979e-001 4.81767859e-003 9.00480140e-004 0.
      6.10969439e-002 3.68604227e-003 1.49975434e-001 3.67316544e-001
      3.67316544e-001 6.48964718e-002 2.22748984e-002 1.72524378e-002
      5.20819752e-003 8.31386223e-002 2.79305875e-002 6.89561442e-002
      3.34924348e-002 8.66279230e-002 2.76063919e-001 6.44058883e-002
      6.89318553e-002 3.85725573e-002 2.27607399e-001 1.07940547e-001
      3.09796423e-001 3.09796423e-001 3.09796423e-001 3.09796423e-001
      1.45954043e-001 3.56713086e-002 1.48226670e-003 2.16169655e-002
      7.47554441e-005 3.62725975e-003 7.71267638e-002 3.09796423e-001
      3.09796423e-001 3.09796423e-001 1.84865817e-001 2.92786565e-002
      5.44348173e-002 1.66725013e-002 9.11059305e-002 1.06109649e-001
      2.49173239e-001 2.42123380e-001 3.99901383e-002 7.83437714e-002
      6.69593886e-002 9.18131322e-002 4.80444804e-002 7.57982209e-002
      1.26760721e-001 2.82003850e-001 2.46079907e-001 5.98246194e-002
      2.82003850e-001 2.82003850e-001 2.82003850e-001 8.00494999e-002
      2.43572495e-003 8.80940482e-002 2.35714167e-001 1.27312794e-001
      2.82003850e-001 2.56660074e-001 8.20882246e-002 6.40675277e-002
      1.63155757e-002 2.82556731e-002 4.71749045e-002 7.47659579e-002
      4.43770550e-002 2.39073709e-001 2.82003850e-001 2.82003850e-001
      2.01701075e-001 2.44738720e-002 2.81989574e-003 1.31053505e-002
      2.89733242e-002</_>
    <_>
      3.39593083e-001 2.27491073e-002 8.34090561e-002 9.85347256e-002
      1.62001535e-001 2.47650724e-002 3.14492956e-002 6.15348369e-002
      3.39593083e-001 3.39593083e-001 2.73137260e-002 5.69823012e-002
      1.64082367e-002 7.47841522e-002 2.46038404e-003 3.24695893e-002
      2.51035802e-002 3.39593083e-001 3.39593083e-001 1.58524141e-002
      3.05050295e-002 1.50560746e-002 1.47614637e-002 3.65981855e-003
      7.56086374e-004 1.97705775e-002 3.39593083e-001 3.39593083e-001
      6.32010400e-002 8.31172317e-002 2.18261909e-002 0. 1.40391616e-003
      1.98002276e-003 1.55073423e-002 3.39593083e-001 3.13802361e-001
      3.96109782e-002 9.34373289e-002 4.28872444e-002 1.52492136e-001
      6.31196005e-003 6.39970507e-003 2.50974949e-002 3.13802361e-001
      2.55514085e-001 6.72040656e-002 1.61097005e-001 1.67102352e-001
      3.13802361e-001 4.55557741e-002 4.11534216e-003 4.44617048e-002
      1.97354302e-001 3.13802361e-001 3.88863645e-002 4.95166257e-002
      1.48588847e-002 4.26460579e-002 2.81377248e-002 3.08912527e-002
      6.10021129e-002 3.13802361e-001 2.28944793e-001 2.36550979e-002
      6.05697781e-002 4.40334082e-002 3.13802361e-001 1.40009105e-001
      7.56351426e-002 1.07206337e-001 3.10422480e-001 1.57719441e-002
      2.27290466e-002 5.00780605e-002 1.21639960e-001 4.42931384e-001
      5.47885224e-002 1.69238308e-003 1.02167977e-002 1.04397340e-002
      7.35474285e-004 1.09180505e-003 1.17591524e-003 1.65052071e-001
      4.42931384e-001 1.48391172e-001 4.14326042e-003 0. 4.18548210e-004
      1.50946677e-002 7.57241994e-003 2.26046890e-002 5.60805909e-002
      4.42931384e-001 1.14130653e-001 2.02285610e-002 2.39662435e-002
      2.46394444e-002 1.05773937e-003 4.34990914e-004 2.46016658e-003
      5.96482307e-002 4.42931384e-001 3.43684316e-001 3.19295609e-003 0.
      7.98130117e-004 3.87001067e-001 8.81784316e-003 8.45165551e-003
      1.43714179e-003 7.61597010e-004 1.44574209e-004 5.02343348e-004
      5.90600446e-003 3.87001067e-001 3.87001067e-001 3.26885171e-002
      2.53424924e-002 8.62284750e-003 1.61673576e-002 2.14366913e-002
      1.37601644e-002 2.68514175e-002 3.87001067e-001 2.92330980e-001
      4.94049443e-003 1.95439043e-003 0. 5.81316417e-003 4.07490926e-003
      8.35492183e-003 1.84822194e-002 2.91147947e-001 3.33600909e-001
      6.32558390e-003 3.70255881e-003 4.46594320e-004 3.83939147e-002
      2.55732201e-002 1.73088685e-002 1.90651752e-002 3.29547912e-001
      2.65679002e-001 9.43868607e-003 6.08783029e-003 2.93423841e-003
      1.87346339e-001 1.10219456e-001 1.01358749e-001 9.32596400e-002
      2.65679002e-001 1.40507117e-001 1.58549882e-002 1.62296891e-002
      2.85038017e-002 2.65679002e-001 2.23781005e-001 1.62055671e-001
      1.39255434e-001 2.19966009e-001 1.47145092e-001 2.89379642e-003
      2.04066653e-003 1.63875299e-003 2.25255966e-001 1.19368903e-001
      1.90903634e-001 1.07571088e-001 2.30677247e-001 2.65679002e-001
      2.64004972e-002 2.22179592e-002 2.02037357e-002 2.65679002e-001
      1.57033995e-001 2.65679002e-001 2.39929408e-001 2.65679002e-001
      6.82191104e-002 3.10316179e-002 6.98349476e-002 1.18661232e-001
      3.27994257e-001 9.73014608e-002 3.54861431e-002 4.01694588e-002
      5.60119599e-002 1.66154262e-002 1.43462876e-002 9.28281322e-002
      1.47853494e-001 3.27994257e-001 2.62700796e-001 3.76673910e-004 0.
      5.81988087e-003 3.27994257e-001 7.76151568e-002 1.37865126e-001
      1.53947920e-001 2.27042511e-001 5.07977307e-002 4.75678071e-002
      1.14470273e-001 3.27994257e-001 1.28883451e-001 5.67397811e-002
      1.92629844e-001 3.27994257e-001 3.27994257e-001 1.73219010e-001
      3.38913553e-004 4.05873582e-002 6.61034659e-002 6.90242648e-002
      1.64814219e-002 5.63849602e-003 0. 1.95869431e-002 2.36424208e-002
      1.91750959e-001 2.47532472e-001 1.59342259e-001 1.22793823e-001
      3.52087207e-002 2.48357486e-002 4.58917022e-003 7.44028836e-002
      2.15863381e-002 4.39002849e-002 8.04945081e-002 1.83891475e-001
      1.21699415e-001 2.20536999e-003 3.13654862e-004 0. 9.62689668e-002
      6.85430691e-003 3.62250328e-001 3.62250328e-001 3.62250328e-001
      3.62250328e-001 1.20321624e-001 2.76032779e-002 1.30608981e-003
      4.87413853e-002 1.32217992e-003 3.30655798e-002 3.20610017e-001
      3.62250328e-001 6.88784942e-002 2.39035897e-002 2.08043866e-002
      1.05033778e-002 1.14457175e-001 4.71519791e-002 1.59656838e-001
      9.27809626e-002 1.80734634e-001 3.12634408e-001 6.98024482e-002
      1.14840239e-001 7.81402886e-002 1.51266620e-001 8.95197242e-002
      2.50632972e-001 2.82055110e-001 3.12634408e-001 2.75136799e-001
      2.19028205e-001 6.19671270e-002 5.82256867e-003 1.97323244e-002
      4.37068241e-003 2.13458221e-002 3.04177832e-002 1.52344480e-001
      3.12634408e-001 3.12634408e-001 3.12634408e-001 9.39662233e-002
      8.30766857e-002 2.44706590e-002 7.32053369e-002 1.12710319e-001
      1.89357430e-001 2.64889747e-001 5.14767803e-002 1.61677554e-001
      1.57581672e-001 1.92411482e-001 5.88973649e-002 2.24263649e-002
      9.73926336e-002 2.97796905e-001 1.02703042e-001 3.64046209e-002
      2.79653668e-001 2.97796905e-001 2.97796905e-001 7.91305080e-002
      1.75246154e-004 4.70335037e-002 6.04727902e-002 7.74093419e-002
      2.72322327e-001 2.97796905e-001 1.75068781e-001 1.17765442e-001
      2.09063757e-002 1.17798075e-002 2.68918127e-002 4.68865111e-002
      1.56922266e-002 1.01269551e-001 2.97796905e-001 2.97796905e-001
      2.22140849e-001 1.55095346e-002 7.00984601e-005 2.61172513e-003
      1.36419181e-002</_>
    <_>
      3.42938036e-001 2.11674478e-002 6.71832114e-002 6.83996677e-002
      1.41611561e-001 1.43569289e-002 3.65254097e-002 4.69334088e-002
      3.42938036e-001 3.42938036e-001 2.73674503e-002 5.85789941e-002
      1.40952002e-002 6.01057410e-002 9.69675835e-004 2.31528934e-002
      2.04479303e-002 3.42938036e-001 3.42938036e-001 2.98959110e-002
      4.76479232e-002 1.47486255e-002 6.34839339e-003 7.03990867e-004
      6.72509137e-004 1.52848437e-002 3.42938036e-001 3.42938036e-001
      5.80337644e-002 7.37342611e-002 2.08564159e-002 4.37547779e-003
      2.84018950e-003 4.20862436e-003 1.99191011e-002 3.42938036e-001
      3.30909699e-001 5.18329814e-002 1.26712203e-001 7.77732506e-002
      2.55572349e-001 1.59245450e-002 1.80556672e-003 3.34104933e-002
      3.30909699e-001 1.61607295e-001 6.76779225e-002 1.57046795e-001
      1.88952118e-001 3.30909699e-001 5.54069132e-002 4.40300955e-003
      4.20903750e-002 1.20535038e-001 3.30909699e-001 3.21134627e-002
      4.97506782e-002 1.58387087e-002 8.15141350e-002 6.11067079e-002
      5.20176217e-002 8.96286070e-002 3.30909699e-001 1.47212446e-001
      2.41454784e-002 6.32504374e-002 6.18008822e-002 3.30909699e-001
      1.54345989e-001 7.21369684e-002 9.79302377e-002 2.10202798e-001
      3.49314744e-003 1.39862178e-002 2.93785501e-002 1.26346081e-001
      4.39546108e-001 7.51435310e-002 1.66638242e-003 4.98721562e-003
      2.47421954e-003 9.95455193e-004 0. 0. 1.50860578e-001
      4.39546108e-001 1.48445472e-001 4.39814711e-003 0. 9.95455193e-004
      3.79189500e-003 4.70461184e-003 1.39708528e-002 5.93043566e-002
      4.39546108e-001 1.54581949e-001 1.09966090e-002 1.20802931e-002
      6.29798090e-003 1.10559957e-003 0. 1.74914021e-003 5.09476811e-002
      4.39546108e-001 3.53145272e-001 3.43266921e-003 0. 1.10559957e-003
      3.80788863e-001 1.60268303e-002 1.42077254e-002 3.30486312e-003
      4.68872051e-004 0. 0. 4.20224108e-003 3.80788863e-001
      3.80788863e-001 2.99131665e-002 2.23565362e-002 8.26215744e-003
      6.98547587e-002 4.64421846e-002 4.17479165e-002 5.18840663e-002
      3.80788863e-001 3.03602904e-001 5.72078442e-003 2.29690713e-003 0.
      3.45845055e-003 1.67473545e-003 5.31806378e-003 1.39411697e-002
      2.93897033e-001 3.10099751e-001 5.84978703e-003 3.58709414e-003
      8.89728952e-004 1.08838588e-001 5.90028577e-002 7.92487562e-002
      3.84371690e-002 3.23501378e-001 2.63866067e-001 4.96563828e-003
      3.04913358e-003 1.66957045e-003 2.50728160e-001 1.50198340e-001
      1.31447628e-001 1.15520500e-001 2.63866067e-001 1.12654649e-001
      2.64666378e-002 3.02955639e-002 5.44034615e-002 2.63866067e-001
      1.89147100e-001 1.25688553e-001 1.10380001e-001 1.50839031e-001
      1.30180404e-001 2.83551030e-003 2.32249917e-003 2.10394082e-003
      2.63866067e-001 1.44694075e-001 2.43209034e-001 1.51262373e-001
      2.63866067e-001 2.63866067e-001 4.90726270e-002 5.15297614e-002
      4.92389947e-002 2.43294433e-001 1.22377232e-001 2.04804733e-001
      2.15843990e-001 2.63866067e-001 5.72165325e-002 3.03300675e-002
      8.57142285e-002 1.41956717e-001 3.19054514e-001 1.10020354e-001
      1.52310263e-002 2.15026680e-002 3.50494497e-002 6.26446214e-003
      6.99573290e-003 7.04692975e-002 1.16105646e-001 3.19054514e-001
      2.73531020e-001 5.77994506e-004 0. 2.75166146e-003 3.19054514e-001
      8.28002915e-002 1.72430739e-001 2.14364260e-001 3.18623096e-001
      6.24361560e-002 1.32735111e-002 8.56771469e-002 3.19054514e-001
      6.05326258e-002 3.45778279e-002 1.45247787e-001 3.04202408e-001
      3.19054514e-001 1.82913661e-001 4.56226291e-004 2.61266436e-002
      2.52980720e-002 9.01749879e-002 2.22895555e-002 8.33966490e-003 0.
      1.38412192e-002 1.29412562e-002 1.26075402e-001 1.96834669e-001
      1.82242617e-001 1.49788573e-001 5.00042029e-002 3.59613523e-002
      9.59662721e-003 1.59798875e-001 5.38778901e-002 1.46519259e-001
      7.93182626e-002 2.00358793e-001 2.13510603e-001 3.99619155e-003
      7.57087255e-004 0. 8.82151201e-002 6.13070652e-003 2.71528959e-001
      3.60812455e-001 3.60812455e-001 3.60812455e-001 2.89156258e-001
      6.77545816e-002 2.73122522e-003 4.80987020e-002 1.87740297e-004
      9.26513597e-003 1.95757613e-001 3.60812455e-001 8.79306570e-002
      2.46854909e-002 2.54730619e-002 1.49541954e-002 1.10360347e-001
      4.84870821e-002 1.80686727e-001 1.22836739e-001 2.86673635e-001
      3.12270790e-001 8.04780945e-002 1.50458962e-001 1.22254200e-001
      1.73656657e-001 9.01571959e-002 1.64179429e-001 2.47482374e-001
      3.12270790e-001 2.46520877e-001 2.37144291e-001 7.02636167e-002
      1.04120765e-002 2.10645143e-002 5.83533756e-003 3.15522961e-002
      3.91085632e-002 1.20324410e-001 2.66859531e-001 3.12270790e-001
      3.12270790e-001 1.45749152e-001 1.20128758e-001 2.91304626e-002
      5.56205995e-002 9.39249918e-002 1.53066397e-001 2.33793989e-001
      5.06206416e-002 1.99230075e-001 2.24401161e-001 2.68157035e-001
      6.38782308e-002 6.37441594e-003 8.26099515e-002 2.65023202e-001
      5.23376763e-002 2.43984610e-002 2.43191630e-001 2.99441993e-001
      2.99441993e-001 7.08948448e-002 6.93031034e-005 2.81008650e-002
      2.63155196e-002 4.62111533e-002 2.35390753e-001 2.99441993e-001
      2.27459088e-001 1.43800929e-001 2.11520847e-002 5.99755486e-003
      1.66761484e-002 2.73436606e-002 1.01984255e-002 5.15730456e-002
      2.99441993e-001 2.99441993e-001 2.11879641e-001 1.02466308e-002
      2.77212384e-005 1.03283662e-003 1.00662541e-002</_>
    <_>
      3.19829553e-001 2.84039080e-002 6.34171516e-002 1.51986191e-002
      5.43680340e-002 5.30314690e-004 2.02849340e-002 1.93768442e-002
      3.19829553e-001 3.19829553e-001 5.57788014e-002 1.30035982e-001
      9.26349238e-002 3.08434486e-001 2.08236389e-002 2.05072132e-003
      3.82267386e-002 3.19829553e-001 3.19829553e-001 5.92610948e-002
      7.63232037e-002 2.09302492e-002 4.68135253e-003 3.49914981e-003
      5.11085428e-003 2.20578667e-002 3.19829553e-001 3.19829553e-001
      2.46600378e-002 4.32537198e-002 1.71743706e-002 1.10708036e-001
      7.60638788e-002 5.97814173e-002 9.65904519e-002 3.19829553e-001
      1.03477068e-001 5.00190966e-002 1.12762026e-001 1.39121160e-001
      4.42045212e-001 4.16035615e-002 3.22714518e-003 3.24174277e-002
      7.79265240e-002 1.43848977e-003 8.22632667e-003 1.87360682e-002
      1.62530482e-001 4.42045212e-001 1.17649600e-001 2.33495538e-003
      7.45489087e-004 1.60551703e-004 9.49805900e-002 1.80949643e-002
      4.71273996e-002 4.61295247e-002 4.42045212e-001 1.13273591e-001
      5.31840436e-002 7.23843426e-002 1.39587298e-001 1.17833551e-003
      2.43644393e-003 9.82633419e-003 7.50696585e-002 4.42045212e-001
      2.43438616e-001 6.25457568e-003 4.24150890e-003 4.01379308e-004 0.
      0. 0. 1.56763956e-001 4.22824115e-001 1.58707544e-001
      4.41207225e-003 0. 0. 2.26351270e-003 0. 0. 3.16479988e-002
      4.22824115e-001 1.94873869e-001 1.76482869e-003 0. 2.26351270e-003
      0. 0. 1.93576422e-003 5.38610630e-002 4.22824115e-001
      3.68022263e-001 3.43688088e-003 0. 0. 1.37014338e-003 0.
      7.74459739e-004 3.83775420e-002 4.22824115e-001 2.28135586e-001
      1.41949172e-003 0. 1.37014338e-003 2.83242911e-001 2.17825342e-002
      1.66351441e-002 5.95491473e-003 5.72801381e-002 4.06056009e-002
      3.51473317e-002 4.36407775e-002 2.83242911e-001 2.83242911e-001
      5.66065311e-003 2.75222259e-003 2.47727684e-003 2.83242911e-001
      2.19694018e-001 1.88194677e-001 1.58715874e-001 2.83242911e-001
      2.14374810e-001 3.72855342e-003 2.46274075e-003 7.89151294e-004
      9.20352489e-002 5.10106236e-002 6.33241311e-002 3.06975115e-002
      2.27948338e-001 1.75772145e-001 5.71054779e-003 4.12097853e-003
      3.18323844e-003 2.83242911e-001 1.95286110e-001 2.83242911e-001
      2.33510032e-001 2.83242911e-001 8.57077315e-002 2.19956953e-002
      2.64390241e-002 4.88290526e-002 2.95358717e-001 1.49270147e-001
      9.67690572e-002 8.63335729e-002 1.14325583e-001 4.87641320e-002
      2.97160521e-002 1.13324352e-001 1.82942420e-001 2.95358717e-001
      1.52290061e-001 7.86837004e-003 1.30904168e-002 2.65500080e-002
      2.95358717e-001 4.35177758e-002 4.59913388e-002 4.41877767e-002
      1.90687358e-001 9.42755491e-002 1.53220460e-001 1.77801132e-001
      2.95358717e-001 2.95358717e-001 9.21008959e-002 2.31766000e-001
      2.95358717e-001 2.95358717e-001 9.16400105e-002 6.05348917e-003
      7.67870769e-002 2.58413047e-001 4.02881578e-003 6.27357000e-003
      7.47991800e-002 1.28550321e-001 3.63383353e-001 2.85059750e-001
      5.55114471e-004 0. 1.09650032e-003 1.91522099e-003 0.
      4.33669519e-003 1.49329707e-001 3.63383353e-001 1.58118472e-001
      4.16335854e-004 0. 1.91522099e-003 4.85256724e-002 3.06541082e-002
      1.48046732e-001 3.41415882e-001 3.63383353e-001 1.84091032e-001
      4.37878654e-004 2.39226259e-002 1.96414515e-002 6.75090589e-003
      4.37466340e-004 6.29340811e-003 3.63383353e-001 3.63383353e-001
      9.28063765e-002 3.12251854e-004 0. 6.75090589e-003 6.73594326e-002
      2.19790209e-002 1.72506142e-002 5.20764710e-003 8.31298381e-002
      2.78279725e-002 6.68389201e-002 3.15386951e-002 8.74967501e-002
      2.76034772e-001 6.43990859e-002 6.89245686e-002 3.85684818e-002
      2.27583349e-001 1.07929148e-001 3.10159594e-001 3.10159594e-001
      3.10159594e-001 3.10159594e-001 1.45938635e-001 3.56675424e-002
      1.48211000e-003 2.03921590e-002 0. 1.25415891e-003 6.67214394e-002
      3.10159594e-001 3.10159594e-001 3.10159594e-001 1.84846282e-001
      2.92755626e-002 5.44290654e-002 1.66707393e-002 9.10962969e-002
      1.06098443e-001 2.49146923e-001 2.40802556e-001 3.97719890e-002
      7.79163986e-002 6.65941164e-002 9.13122818e-002 4.77823876e-002
      7.53847361e-002 1.26069218e-001 2.83716530e-001 2.40653485e-001
      6.02833107e-002 2.83716530e-001 2.83716530e-001 2.83716530e-001
      8.35166350e-002 2.42243777e-003 8.76134858e-002 2.30344310e-001
      1.26618281e-001 2.83297151e-001 2.55259961e-001 8.16404223e-002
      6.37180358e-002 1.62265729e-002 2.81015337e-002 4.69175577e-002
      7.43580982e-002 3.58169451e-002 2.38422886e-001 2.83716530e-001
      2.83716530e-001 2.05854073e-001 2.45394539e-002 2.80451262e-003
      1.30338585e-002 2.04972439e-002 2.84781195e-002 1.68176927e-002
      1.90430015e-001 3.39881510e-001 3.39881510e-001 5.15286252e-002
      4.96110806e-005 1.95000730e-002 1.24003515e-002 5.73970517e-003
      2.48897471e-003 5.65779656e-002 3.39881510e-001 3.39881510e-001
      2.32575983e-002 0. 0. 5.73970517e-003 1.24699305e-004
      3.59869227e-002 3.39881510e-001 3.39881510e-001 1.64990142e-001
      7.05708284e-003 1.98444322e-005 7.39362789e-004 3.00828870e-005
      3.62970354e-003 3.55042191e-003 2.75981843e-001 3.39881510e-001
      1.96852416e-001 9.17757023e-003 2.14104730e-005 0. 3.62970354e-003</_>
    <_>
      3.10045570e-001 3.34267579e-002 7.35972822e-002 2.49985438e-002
      7.73488283e-002 1.95283690e-004 1.12091675e-002 2.05993745e-002
      3.10045570e-001 3.10045570e-001 6.12804517e-002 1.50174722e-001
      1.30589709e-001 3.10045570e-001 3.57613154e-002 3.41304136e-003
      4.25908267e-002 2.85344243e-001 3.10045570e-001 5.19763827e-002
      6.04565106e-002 2.01140493e-002 1.69348828e-002 8.55024904e-003
      1.45771401e-002 3.81676853e-002 3.10045570e-001 3.10045570e-001
      2.17297040e-002 5.35647869e-002 2.62022782e-002 2.09815547e-001
      1.14034437e-001 7.16331676e-002 1.06399857e-001 3.10045570e-001
      4.28341068e-002 3.33192386e-002 8.01309049e-002 1.20697051e-001
      4.45502996e-001 4.34078947e-002 2.67557916e-003 1.90552976e-002
      3.17934640e-002 7.88281730e-004 3.82323656e-003 5.77693991e-003
      1.74818605e-001 4.45502996e-001 1.39960140e-001 2.78156251e-003 0.
      0. 4.09252755e-002 1.19355693e-002 3.55615988e-002 5.03543615e-002
      4.45502996e-001 9.87241566e-002 3.54450494e-002 4.44273353e-002
      6.20430894e-002 6.45719236e-004 1.08194130e-003 3.73279373e-003
      6.77760318e-002 4.45502996e-001 3.11755836e-001 2.79377517e-003
      5.87158545e-004 0. 0. 0. 0. 1.43914580e-001 4.18300360e-001
      1.76702678e-001 4.66975430e-003 0. 0. 1.50598423e-003 0. 0.
      9.41211265e-003 4.18300360e-001 2.30234593e-001 7.78292364e-004 0.
      1.50598423e-003 0. 0. 1.46292930e-003 4.71301898e-002
      4.18300360e-001 3.86435956e-001 3.65523272e-003 0. 0.
      2.25585746e-003 0. 6.98098680e-004 5.33523224e-002 4.18300360e-001
      1.90879330e-001 6.44885993e-004 0. 2.25585746e-003 2.74557829e-001
      1.67155266e-002 1.12375207e-002 5.11797937e-003 1.18582353e-001
      7.14352652e-002 6.71080574e-002 7.01748952e-002 2.74557829e-001
      2.01921716e-001 8.65638070e-003 8.18362460e-003 1.39223738e-002
      2.74557829e-001 2.39908099e-001 1.88402757e-001 1.55602470e-001
      2.74557829e-001 1.79400072e-001 2.94874422e-003 2.14791181e-003
      1.20875472e-003 1.63086653e-001 8.66567194e-002 1.27327412e-001
      6.62242547e-002 2.20036685e-001 2.19829172e-001 1.28067648e-002
      1.14707397e-002 1.07537536e-002 2.74557829e-001 1.85751542e-001
      2.74557829e-001 2.52242476e-001 2.74557829e-001 7.66280815e-002
      2.81819329e-002 4.85602580e-002 8.52717534e-002 3.23007941e-001
      1.20486408e-001 6.63438812e-002 6.27716631e-002 7.99801424e-002
      3.14079113e-002 2.25699656e-002 1.08929500e-001 1.74224496e-001
      3.23007941e-001 2.14228928e-001 1.45982124e-003 4.62962966e-003
      1.36421630e-002 3.23007941e-001 6.34974912e-002 9.21389088e-002
      9.66886058e-002 1.81998879e-001 7.14007616e-002 9.41797048e-002
      1.46270916e-001 3.23007941e-001 2.16631845e-001 7.78479129e-002
      2.25006729e-001 3.23007941e-001 3.23007941e-001 1.29247442e-001
      9.95552284e-004 5.79082631e-002 1.46162882e-001 1.24540937e-003
      2.36123591e-003 4.44476381e-002 1.05269559e-001 3.71055901e-001
      2.88494766e-001 6.31458475e-004 0. 0. 3.56975431e-003 0.
      3.93526070e-003 1.83751002e-001 3.71055901e-001 1.06696561e-001
      2.52583355e-004 0. 3.56975431e-003 1.66946109e-002 1.47835491e-002
      8.74224380e-002 3.46912146e-001 3.71055901e-001 1.85255408e-001
      4.73593827e-004 1.12216687e-002 4.32639802e-003 7.67084025e-003
      2.65402836e-004 7.14513706e-003 3.71055901e-001 3.71055901e-001
      5.72329722e-002 1.89437487e-004 0. 7.67084025e-003 6.28107637e-002
      2.24466603e-002 1.79258753e-002 6.49258494e-003 1.05492309e-001
      4.02125642e-002 1.19238123e-001 5.50812669e-002 1.13646969e-001
      3.10015887e-001 6.37058541e-002 9.20789689e-002 5.22294454e-002
      1.62408531e-001 9.09713656e-002 3.10015887e-001 3.10015887e-001
      3.10015887e-001 3.10015887e-001 1.90339193e-001 4.98235822e-002
      1.84780662e-003 1.93798821e-002 2.33048853e-003 9.62516200e-003
      2.62053702e-002 2.23349914e-001 3.10015887e-001 3.10015887e-001
      2.49694288e-001 4.82698120e-002 5.89397550e-002 1.90789253e-002
      8.73042718e-002 1.26813352e-001 2.10977748e-001 2.65101671e-001
      4.69365641e-002 1.14271723e-001 1.08208060e-001 1.30886599e-001
      5.40414266e-002 4.34530899e-002 1.12721428e-001 2.95469284e-001
      1.64757684e-001 4.87302132e-002 2.95469284e-001 2.95469284e-001
      2.95469284e-001 8.06121901e-002 6.08509872e-004 6.59171119e-002
      1.25309795e-001 1.02642864e-001 2.85637438e-001 2.95469284e-001
      1.25885487e-001 9.07469764e-002 1.90279838e-002 1.98238511e-002
      4.07405682e-002 6.18321262e-002 1.50621291e-002 1.64812952e-001
      2.95469284e-001 2.95469284e-001 2.18284100e-001 2.01343950e-002
      5.29247511e-004 4.64092940e-003 7.86133390e-003 9.54258163e-003
      1.03881471e-002 1.49708182e-001 3.47945184e-001 3.47945184e-001
      4.52433154e-002 0. 7.96635821e-003 3.07134702e-003 4.81848372e-003
      1.32847647e-003 3.63152400e-002 3.47945184e-001 3.47945184e-001
      1.36403441e-002 0. 0. 4.81848372e-003 0. 1.85820386e-002
      3.47945184e-001 3.47945184e-001 1.61129132e-001 4.45178384e-003 0.
      0. 0. 3.57285235e-003 1.67680811e-003 2.05612466e-001
      3.47945184e-001 2.30733126e-001 3.00635137e-002 1.94050837e-003 0.
      3.57285235e-003</_>
    <_>
      1.11913852e-001 4.58474867e-002 2.20087424e-001 2.45532960e-001
      3.23059171e-001 5.66073805e-002 2.92964606e-003 4.40793335e-002
      1.61906138e-001 3.23059171e-001 1.99977402e-002 9.21408460e-002
      1.28864467e-001 1.47917539e-001 2.60291081e-002 1.47173433e-002
      6.55750185e-002 3.23059171e-001 3.23059171e-001 3.44450548e-002
      4.11998816e-002 3.77411656e-002 1.91411257e-001 3.83764058e-002
      2.29840074e-002 1.23412997e-001 3.23059171e-001 3.23059171e-001
      9.14720446e-003 1.16269980e-002 1.04080783e-002 1.63063500e-002
      4.53956472e-003 0. 1.08898394e-002 3.23059171e-001 3.47242147e-001
      3.01774032e-002 6.61305338e-002 3.33927721e-002 5.77691272e-002
      2.20573111e-003 2.08304636e-002 3.26570570e-002 3.47242147e-001
      3.47242147e-001 3.94650660e-002 6.96402565e-002 1.79024618e-002
      3.75523530e-002 0. 8.03007931e-003 2.09313054e-002 3.47242147e-001
      3.47242147e-001 3.75335999e-002 4.87296097e-002 1.19699081e-002
      1.25178881e-003 1.39539770e-004 0. 6.47453219e-003 3.47242147e-001
      3.47242147e-001 4.16965000e-002 4.60566133e-002 1.49629358e-002
      3.30218561e-002 2.14510765e-002 2.00101882e-002 4.50201705e-002
      3.47242147e-001 3.39019775e-001 5.62603064e-002 1.30657375e-001
      7.79757202e-002 2.30364174e-001 3.53433378e-002 1.23234782e-002
      5.73166795e-002 3.39019775e-001 8.84168819e-002 3.58117670e-002
      1.13617748e-001 1.35970116e-001 3.39019775e-001 7.04354197e-002
      1.36948628e-002 4.59407382e-002 8.00386816e-002 3.39019775e-001
      1.61895622e-002 2.89043374e-002 1.02703171e-002 2.20333368e-001
      1.46700770e-001 9.48009714e-002 1.34017467e-001 3.39019775e-001
      7.34820366e-002 1.94323156e-002 4.54868190e-002 7.77987391e-002
      3.39019775e-001 1.77584171e-001 7.21526816e-002 8.31522942e-002
      1.14013091e-001 4.25813645e-001 1.71172377e-002 5.19881351e-003
      3.13919806e-003 4.68340404e-002 4.96762954e-002 6.67572692e-002
      2.45163471e-001 4.25813645e-001 4.25813645e-001 6.40506018e-003
      3.33235343e-003 4.97359026e-004 4.47311113e-003 3.18137975e-003
      5.61276451e-003 2.19231956e-002 4.25813645e-001 1.40792757e-001
      4.71704989e-004 1.41151575e-003 0. 1.53493108e-002 9.96037722e-002
      1.75090358e-001 8.15987214e-002 1.52333438e-001 2.19757169e-001
      5.68962889e-003 2.72998330e-003 0. 1.33493552e-002 2.13543493e-002
      4.98822853e-002 4.87134345e-002 2.36643016e-001 3.97150725e-001
      1.50803411e-002 8.08813050e-003 3.14473337e-003 8.04409501e-004
      1.87328435e-004 4.81324183e-004 5.34570962e-003 3.97150725e-001
      3.97150725e-001 1.45433703e-002 6.64602360e-003 4.19297721e-003
      2.36150175e-001 1.44704387e-001 1.43698081e-001 1.35597497e-001
      3.97150725e-001 2.03639001e-001 8.13073851e-003 3.55895562e-003 0.
      3.22570815e-003 1.39036635e-003 9.66369174e-003 1.56307071e-002
      1.93155840e-001 1.76965103e-001 8.54303315e-003 5.45239355e-003
      3.22875613e-003 2.00428739e-001 1.02421038e-001 1.66591674e-001
      8.42756033e-002 2.29383349e-001 2.05816805e-001 3.85797233e-003
      1.68492005e-003 1.34338741e-003 2.70576984e-001 2.07552552e-001
      2.05308884e-001 1.60677657e-001 2.70576984e-001 1.90222934e-001
      5.10450602e-002 6.33049607e-002 9.74971727e-002 2.70576984e-001
      1.41344115e-001 1.07782327e-001 1.07014216e-001 2.21696168e-001
      1.22797027e-001 7.12400349e-003 6.68224320e-003 5.40140131e-003
      2.14010656e-001 1.14761174e-001 2.43377373e-001 1.63539305e-001
      2.70576984e-001 2.70576984e-001 6.82891831e-002 7.82339200e-002
      8.08013752e-002 1.62784204e-001 8.09373930e-002 1.16078317e-001
      1.90023527e-001 2.70576984e-001 1.18760606e-002 4.17359959e-004
      6.23675121e-004 0. 7.76902540e-003 9.09662023e-002 3.73975426e-001
      2.41175368e-001 2.82488260e-002 1.26928808e-002 3.46545526e-003
      1.20623712e-003 0. 7.80705549e-003 2.46967338e-002 2.25815579e-001
      2.24405840e-001 7.46848807e-002 2.40233690e-002 9.46434028e-003
      6.26705866e-003 0. 7.26987422e-002 3.53909880e-002 3.73975426e-001
      3.73975426e-001 1.78782523e-001 2.82950364e-002 3.53112910e-003
      2.50682305e-003 0. 5.09081110e-002 1.37033463e-002 3.73975426e-001
      3.73975426e-001 2.80990809e-001 6.41784295e-002 1.46663096e-002
      5.60077699e-003 0. 7.41812913e-003 5.03900740e-003 7.81076252e-002
      1.79463789e-001 1.91078708e-001 1.63766578e-001 8.02845731e-002
      4.82904501e-002 1.17148720e-002 9.41262543e-002 2.51565948e-002
      1.23473324e-001 8.72704387e-002 2.42021725e-001 3.34468335e-001
      5.39330626e-003 3.66086315e-004 0. 6.79579303e-002 2.06574146e-003
      1.55097082e-001 3.54424864e-001 3.54424864e-001 3.54424864e-001
      3.54424864e-001 1.14389390e-001 1.04036566e-003 4.30941544e-002
      3.23037012e-003 1.62826572e-002 8.15557539e-002 3.54424864e-001
      1.10919312e-001 5.79724386e-002 4.30623554e-002 2.01337766e-002
      3.99769619e-002 1.81954931e-002 1.10390574e-001 9.14493129e-002
      2.74881095e-001 2.99207777e-001 1.33530214e-001 2.50456780e-001
      1.95186496e-001 2.00202599e-001 9.11402404e-002 6.44318461e-002
      1.60894886e-001 2.99207777e-001 2.99207777e-001 2.99207777e-001
      9.80326161e-002 8.79334100e-003 2.47318931e-002 4.54366580e-003
      3.14079672e-002 4.48321067e-002 1.02284320e-001 2.70170957e-001
      2.99207777e-001 2.99207777e-001 1.53800592e-001 8.82609189e-002
      1.50317969e-002 3.12332455e-002 5.67997992e-002 1.19041517e-001</_>
    <_>
      3.47468793e-001 3.01698912e-002 6.61140755e-002 2.78122351e-002
      4.99346703e-002 7.49633356e-004 2.05711871e-002 3.22068185e-002
      3.47468793e-001 3.47468793e-001 3.94552425e-002 6.96229264e-002
      1.78980064e-002 3.75430062e-002 0. 8.02808069e-003 2.09260974e-002
      3.47468793e-001 3.47468793e-001 3.75242569e-002 4.87174764e-002
      1.12194102e-002 0. 0. 0. 6.43519824e-003 3.47468793e-001
      3.47468793e-001 4.16861214e-002 4.60451506e-002 1.49592105e-002
      3.30136381e-002 2.14457382e-002 2.00052094e-002 4.50089686e-002
      3.47468793e-001 3.45670253e-001 5.35405576e-002 1.24341100e-001
      7.42061883e-002 2.19227850e-001 3.36347595e-002 1.17277335e-002
      5.45458570e-002 3.45670253e-001 8.26599374e-002 3.40805463e-002
      1.08125217e-001 1.30760163e-001 3.45670253e-001 6.94086328e-002
      1.30328219e-002 4.37198579e-002 7.46867657e-002 3.45670253e-001
      1.54069224e-002 2.75070332e-002 9.77382716e-003 2.09681958e-001
      1.39608905e-001 9.02180746e-002 1.27538756e-001 3.45670253e-001
      6.55974373e-002 1.84929110e-002 4.74287868e-002 8.30794796e-002
      3.45670253e-001 1.72170341e-001 6.86646625e-002 7.91325271e-002
      1.04169145e-001 0. 3.31943360e-004 9.64543223e-003 9.57462192e-002
      4.36102539e-001 1.21696912e-001 2.95729190e-003 9.95162874e-004
      1.87721147e-004 2.23429850e-003 0. 0. 9.27340165e-002
      4.36102539e-001 1.83067977e-001 4.74073552e-003 0. 2.23429850e-003
      4.60529700e-003 4.83571691e-003 2.42491215e-002 7.79808313e-002
      4.36102539e-001 2.10672289e-001 5.37695177e-003 5.05639846e-003
      1.69829256e-003 2.12515751e-003 0. 1.10609578e-002 4.71778885e-002
      4.36102539e-001 3.39352399e-001 2.18187412e-003 0. 2.12515751e-003
      3.97005349e-001 1.50372041e-002 7.98398256e-003 3.14261648e-003
      7.78552203e-004 1.27597319e-004 4.81000141e-004 4.65059280e-003
      3.97005349e-001 3.97005349e-001 1.45335793e-002 6.64154952e-003
      4.19015484e-003 2.35991195e-001 1.44606978e-001 1.43601358e-001
      1.35506198e-001 3.97005349e-001 2.04942405e-001 8.04280397e-003
      3.30980332e-003 0. 3.07164202e-003 1.03180041e-003 8.83932132e-003
      1.39568262e-002 1.94174439e-001 1.76845968e-001 8.53728224e-003
      5.44872275e-003 3.22658266e-003 2.00293809e-001 1.02352090e-001
      1.66479528e-001 8.42188671e-002 2.29228929e-001 2.04445630e-001
      3.83226993e-003 1.67369493e-003 1.33443763e-003 2.70049661e-001
      2.06169814e-001 2.03941092e-001 1.59607202e-001 2.70049661e-001
      1.78879455e-001 5.07049933e-002 8.07200968e-002 1.20093413e-001
      2.70049661e-001 1.40975684e-001 1.07064269e-001 1.06301285e-001
      2.10143030e-001 1.21978931e-001 7.07654236e-003 6.63772505e-003
      5.36541687e-003 2.12584883e-001 1.13996610e-001 2.41755947e-001
      1.62449777e-001 2.70049661e-001 2.70049661e-001 6.78342357e-002
      9.36522856e-002 1.03673689e-001 1.68856159e-001 8.03981796e-002
      1.15304992e-001 1.88757554e-001 2.70049661e-001 9.64575484e-002
      4.55897152e-002 1.46570116e-001 2.08449230e-001 3.17252874e-001
      1.30246013e-001 6.70495816e-003 1.83958802e-002 6.30395338e-002
      8.20926763e-003 6.65742997e-003 7.32916594e-002 1.40858695e-001
      3.17252874e-001 2.56809890e-001 7.39858428e-004 2.56321090e-003
      4.13161283e-003 2.76609987e-001 7.81986266e-002 1.89945936e-001
      2.89354682e-001 3.17252874e-001 9.23319161e-002 3.57927755e-003
      8.06453377e-002 2.29295030e-001 2.54397560e-002 1.83696207e-002
      1.08418502e-001 3.17252874e-001 3.17252874e-001 1.46531090e-001
      2.95943348e-004 1.53792603e-002 1.21032493e-002 7.36804679e-002
      1.45575358e-002 5.36826532e-003 0. 7.16149295e-003 4.46494576e-003
      6.65474907e-002 1.66902065e-001 1.99714437e-001 1.63368881e-001
      8.00896063e-002 4.81731854e-002 1.16864238e-002 9.38976780e-002
      2.50955038e-002 1.23173483e-001 8.70585144e-002 2.41433993e-001
      3.54211718e-001 5.38020907e-003 3.65197309e-004 0. 6.72146380e-002
      2.06072489e-003 1.15715131e-001 3.54211718e-001 3.54211718e-001
      3.54211718e-001 3.54211718e-001 1.14111595e-001 1.03783922e-003
      4.29895073e-002 3.22252559e-003 1.62431188e-002 8.13577101e-002
      3.54211718e-001 1.09034076e-001 5.69871180e-002 4.23304513e-002
      1.97915751e-002 3.92974950e-002 1.78862363e-002 1.08514324e-001
      8.98950025e-002 2.70209074e-001 2.99526930e-001 1.31619781e-001
      2.78441250e-001 2.06240773e-001 2.04921752e-001 8.95911828e-002
      6.33367375e-002 1.58160254e-001 2.99526930e-001 2.99526930e-001
      2.99526930e-001 9.63664129e-002 8.64388607e-003 2.43115406e-002
      4.46643960e-003 3.08741424e-002 4.40701246e-002 1.00545846e-001
      2.42416352e-001 2.99526930e-001 2.99526930e-001 1.65545374e-001
      8.93650353e-002 1.47763109e-002 3.07023935e-002 5.58344051e-002
      9.38555226e-002 1.08623549e-001 5.01576923e-002 3.01397085e-001
      2.91019022e-001 2.93773234e-001 5.65576889e-002 1.64107070e-003
      4.97321934e-002 1.00447252e-001 1.41378492e-002 1.40402326e-002
      2.75049746e-001 3.09615314e-001 3.09615314e-001 3.09132393e-002 0.
      7.41495099e-003 9.37614404e-003 2.57460307e-002 2.37158686e-001
      3.09615314e-001 2.42362142e-001 9.70230848e-002 8.39192513e-003
      1.43560290e-003 4.17589396e-003 9.12539475e-003 7.53823202e-003
      2.85845418e-002 3.09615314e-001 3.09615314e-001 1.49490491e-001
      4.95752878e-003 0. 0. 7.53823202e-003</_>
    <_>
      3.03544968e-001 4.13305797e-002 7.25909695e-002 2.00326145e-002
      3.76639850e-002 0. 6.67336164e-003 2.17756592e-002 3.03544968e-001
      3.03544968e-001 5.09607792e-002 1.28711656e-001 8.73917490e-002
      2.99439669e-001 4.48984988e-002 1.38551192e-002 5.77499978e-002
      3.03544968e-001 3.03544968e-001 4.34251130e-002 4.55132201e-002
      1.64026413e-002 4.04739305e-002 2.45936234e-002 2.30979640e-002
      4.93552610e-002 3.03544968e-001 2.85521656e-001 1.18714403e-002
      3.08044944e-002 1.56856384e-002 2.82988012e-001 1.57882258e-001
      9.30161104e-002 1.21274874e-001 3.03544968e-001 4.62768376e-002
      2.02499218e-002 7.08137453e-002 8.64523277e-002 4.46708918e-001
      4.87141907e-002 8.68046470e-003 2.67985463e-002 4.27036732e-002 0.
      0. 3.21686827e-003 1.24205478e-001 4.46708918e-001 1.76885545e-001
      3.22937663e-003 0. 0. 3.83965746e-002 1.17669879e-002
      3.16021442e-002 5.48877046e-002 4.46708918e-001 1.17048793e-001
      4.44731712e-002 5.02613559e-002 5.99288046e-002 3.58392741e-003
      3.57855344e-003 2.46214177e-002 8.44580755e-002 4.46708918e-001
      3.08838665e-001 2.26907013e-003 1.79690309e-003 9.72899608e-004 0.
      0. 0. 1.05037488e-001 4.19290155e-001 2.19924241e-001
      5.17213019e-003 0. 0. 1.46733306e-003 0. 0. 1.51318526e-002
      4.19290155e-001 2.08031580e-001 8.62021639e-004 0. 1.46733306e-003
      0. 0. 1.07462173e-002 5.26340157e-002 4.19290155e-001
      3.87505859e-001 2.36876775e-003 0. 0. 2.57621147e-003 0.
      1.69591676e-003 8.81441608e-002 4.19290155e-001 1.69761911e-001
      4.64775017e-004 0. 2.57621147e-003 2.75874734e-001 8.50721076e-003
      3.62725207e-003 2.63787131e-003 1.63556933e-001 9.62425023e-002
      9.89392921e-002 8.44841897e-002 2.75874734e-001 2.11899281e-001
      1.08926129e-002 9.95363016e-003 1.50508368e-002 2.75874734e-001
      2.74367332e-001 2.62365311e-001 2.04674110e-001 2.75874734e-001
      1.02472872e-001 4.79776645e-003 3.17036337e-003 2.14259489e-003
      1.36123836e-001 6.84150457e-002 1.16675310e-001 5.36073521e-002
      1.35864869e-001 2.17824221e-001 1.51901012e-002 1.52699342e-002
      1.30570447e-002 2.48746246e-001 1.40407726e-001 2.75874734e-001
      2.40528241e-001 2.75874734e-001 1.44695610e-001 4.16988768e-002
      6.87389895e-002 1.00599736e-001 3.07808608e-001 1.13108374e-001
      8.02789927e-002 8.37293118e-002 1.68403327e-001 7.53588080e-002
      4.01038267e-002 1.61479384e-001 2.29069352e-001 3.07808608e-001
      1.84425771e-001 1.53848832e-003 1.26008391e-002 4.13776860e-002
      3.07808608e-001 5.85789196e-002 8.39827508e-002 9.31608602e-002
      1.41358539e-001 6.38012737e-002 8.12473148e-002 1.48425922e-001
      3.07808608e-001 2.20559448e-001 7.35013038e-002 2.14439496e-001
      3.07808608e-001 3.07808608e-001 1.17113657e-001 7.85671000e-004
      6.91846684e-002 1.55603439e-001 4.44205245e-003 5.34147397e-003
      6.21978454e-002 1.45541996e-001 3.65391880e-001 2.56023496e-001
      7.00096891e-004 1.97094027e-003 7.59875635e-004 4.54030791e-003 0.
      4.54668514e-003 2.53493905e-001 3.65391880e-001 9.06765833e-002
      2.80038774e-004 0. 4.54030791e-003 1.67742614e-002 1.50087960e-002
      9.42683518e-002 3.65391880e-001 3.65391880e-001 1.43172443e-001
      2.80038774e-004 1.18256370e-002 4.55925148e-003 7.53456960e-003
      5.76970575e-004 1.16573246e-002 3.65391880e-001 3.65391880e-001
      4.22434770e-002 1.12015492e-004 0. 7.53456960e-003 8.45761970e-002
      4.31657396e-002 2.60603968e-002 6.40835194e-003 5.01716733e-002
      1.37250600e-002 7.04446211e-002 4.15833965e-002 1.19761504e-001
      2.91086435e-001 1.37223110e-001 1.33017942e-001 6.39072657e-002
      7.41439611e-002 4.88208160e-002 2.26444408e-001 2.35588700e-001
      3.19111377e-001 3.19111377e-001 2.63510704e-001 6.35835305e-002
      5.69108000e-004 1.92896090e-002 1.69766531e-003 8.37809127e-003
      2.53650490e-002 2.86520213e-001 3.19111377e-001 3.19111377e-001
      3.06324601e-001 3.37082632e-002 6.12711981e-002 1.23954006e-002
      7.55044892e-002 1.18730411e-001 2.01661214e-001 1.80798888e-001
      7.32651949e-002 1.62073284e-001 1.27128616e-001 1.29711136e-001
      5.10013290e-002 3.13898101e-002 8.71116221e-002 2.95551926e-001
      1.01911128e-001 5.34181036e-002 3.08514148e-001 3.08514148e-001
      3.08514148e-001 6.47435114e-002 7.17950403e-004 4.85979021e-002
      8.12630877e-002 1.33104101e-001 3.08514148e-001 3.08514148e-001
      1.02302030e-001 5.43973744e-002 8.15153308e-003 1.66799985e-002
      3.30920033e-002 5.26670739e-002 1.68124009e-002 2.28776813e-001
      3.08514148e-001 3.08514148e-001 1.42534718e-001 9.90691036e-003
      3.58372956e-004 1.02566861e-004 5.12432912e-003 5.60975634e-003
      1.05996942e-002 2.23794475e-001 3.50677431e-001 3.03310126e-001
      2.50026975e-002 0. 4.84119123e-003 1.86647114e-003 4.21844237e-003
      1.66528800e-003 6.89049885e-002 3.50677431e-001 3.12734008e-001
      9.62296221e-003 0. 0. 4.21844237e-003 0. 2.06950195e-002
      3.50677431e-001 3.50677431e-001 1.27984151e-001 4.07167245e-003 0.
      0. 0. 3.69626773e-003 1.28200173e-003 2.71545738e-001
      3.50677431e-001 2.08036721e-001 4.65757772e-002 5.04364725e-003 0.
      3.69626773e-003</_>
    <_>
      1.63953409e-001 4.07131761e-002 1.48209244e-001 1.59192726e-001
      3.32137078e-001 5.67783229e-002 5.83452173e-003 5.08802272e-002
      2.45341867e-001 3.37225884e-001 1.38834259e-002 5.22955023e-002
      6.59248233e-002 1.10369995e-001 2.10682806e-002 4.31094691e-003
      5.14121912e-002 3.37225884e-001 3.37225884e-001 2.67238393e-002
      1.81130636e-002 1.92271583e-002 1.19577184e-001 2.86463629e-002
      2.70574465e-002 1.48689911e-001 3.37225884e-001 3.37225884e-001
      7.35140126e-003 7.64282560e-003 4.88733407e-003 3.95366875e-003
      9.52341594e-004 6.82171783e-004 3.98430461e-003 3.37225884e-001
      3.47681463e-001 3.63711566e-002 6.71945289e-002 2.04890780e-002
      3.28797139e-002 1.33077358e-003 1.98216154e-003 2.35249903e-002
      3.47681463e-001 3.47681463e-001 4.34123576e-002 6.27447292e-002
      1.71637833e-002 2.29370892e-002 4.89903614e-004 2.44591129e-003
      1.97327062e-002 3.47681463e-001 3.47681463e-001 2.84011364e-002
      3.21940929e-002 8.43001530e-003 1.70581494e-004 0. 0.
      2.46292260e-003 3.47681463e-001 3.47681463e-001 3.08106486e-002
      2.93374341e-002 1.08313793e-002 6.45658001e-002 4.02741022e-002
      3.53571996e-002 6.03558496e-002 3.47681463e-001 3.25226337e-001
      4.65493351e-002 8.71959627e-002 4.86036092e-002 1.42712772e-001
      4.62656245e-002 2.43190378e-002 6.73401356e-002 3.25226337e-001
      8.90876949e-002 3.12478989e-002 8.25745538e-002 8.95190090e-002
      3.25226337e-001 8.54405016e-002 2.47678924e-002 5.47825992e-002
      9.48582962e-002 3.25226337e-001 8.27882811e-003 1.08735533e-002
      5.91079658e-003 3.25226337e-001 1.99926227e-001 1.37886330e-001
      1.59576505e-001 3.25226337e-001 8.27895030e-002 2.61064358e-002
      4.49290201e-002 1.02098852e-001 3.25226337e-001 1.99519902e-001
      8.98789763e-002 9.05121118e-002 1.10429049e-001 4.30985063e-001
      1.07289804e-002 1.14570407e-003 0. 2.82119475e-002 7.49965385e-002
      9.45187584e-002 2.71108419e-001 4.30985063e-001 4.30985063e-001
      7.04833865e-003 2.21588253e-003 0. 9.52125993e-003 9.34724789e-003
      1.22198043e-002 3.50044593e-002 4.30985063e-001 5.78410439e-002
      5.10500104e-004 1.52760511e-003 0. 1.66070387e-002 1.21699005e-001
      3.04321647e-001 9.10274684e-002 6.55614659e-002 8.73693004e-002
      6.34728884e-003 2.95450957e-003 0. 1.52830295e-002 2.78690755e-002
      9.91847366e-002 8.46702829e-002 1.13113806e-001 4.04105663e-001
      1.27064958e-002 2.19506724e-003 0. 1.64069596e-003 5.41893882e-004
      1.78167492e-003 9.38620418e-003 4.04105663e-001 4.04105663e-001
      1.07251201e-002 1.99079723e-003 4.40287491e-004 3.35194200e-001
      1.98762983e-001 2.17409492e-001 1.74568444e-001 4.04105663e-001
      9.23255906e-002 9.67264641e-003 4.33405722e-003 0. 4.47146455e-003
      1.98581605e-003 1.85891856e-002 2.75338683e-002 9.53731462e-002
      9.07894298e-002 1.34235360e-002 9.11551621e-003 5.15478291e-003
      1.71694949e-001 7.93675929e-002 1.58613965e-001 7.15390891e-002
      1.39023572e-001 1.90129593e-001 3.73970834e-003 1.60731841e-003
      9.76881827e-004 2.66499043e-001 2.14495406e-001 2.54231870e-001
      1.86182082e-001 2.66499043e-001 2.66499043e-001 6.53424785e-002
      7.82772899e-002 1.03940748e-001 2.66499043e-001 1.27903372e-001
      1.27784356e-001 1.42400071e-001 2.66499043e-001 1.01489127e-001
      1.07814558e-002 1.19861150e-002 8.44995212e-003 1.37568533e-001
      7.12050200e-002 1.95263475e-001 1.30800709e-001 2.66499043e-001
      2.66499043e-001 5.95532544e-002 8.62568244e-002 8.35426599e-002
      1.45336851e-001 7.81087205e-002 9.44774225e-002 1.71884820e-001
      2.66499043e-001 1.13768373e-002 4.73991531e-004 2.43895454e-004 0.
      3.66967591e-003 4.81849127e-002 3.58739883e-001 2.92435467e-001
      4.30687554e-002 1.05045503e-002 1.68585160e-003 4.71713225e-004 0.
      3.54360137e-003 1.36642084e-002 2.29669437e-001 2.68441290e-001
      9.18102711e-002 2.36874856e-002 1.15739740e-002 8.08522385e-003 0.
      8.41597766e-002 7.46244714e-002 3.58739883e-001 3.58739883e-001
      1.69430286e-001 3.36464867e-002 4.32073325e-003 3.23408935e-003 0.
      4.76202704e-002 2.78001055e-002 3.58739883e-001 3.58739883e-001
      2.88504630e-001 6.86809793e-002 7.74054043e-003 2.74745794e-003 0.
      4.32361150e-003 3.35435942e-003 6.73085302e-002 1.94909975e-001
      2.28068441e-001 2.01199457e-001 1.12905033e-001 4.63671573e-002
      6.62389537e-003 2.85363980e-002 6.35866867e-003 4.29569110e-002
      5.59447780e-002 2.21869335e-001 3.14610898e-001 4.91235405e-003 0.
      0. 2.41089556e-002 8.64239060e-004 1.44096404e-001 3.60764027e-001
      3.60764027e-001 3.60764027e-001 3.60764027e-001 9.25096795e-002 0.
      2.88235601e-002 1.34368567e-003 1.03693949e-002 7.72364289e-002
      3.60764027e-001 1.16953194e-001 1.07229821e-001 5.23665473e-002
      1.87710747e-002 1.46484654e-002 8.42281803e-003 6.12027310e-002
      6.31458908e-002 1.75825730e-001 2.33181164e-001 2.17725828e-001
      3.13231826e-001 1.99832201e-001 1.71325728e-001 7.24473149e-002
      4.59111817e-002 1.08997852e-001 3.13231826e-001 3.13231826e-001
      3.13231826e-001 1.05942935e-001 4.19553509e-003 1.33796344e-002
      2.41576275e-003 2.13533398e-002 3.50686349e-002 1.24081194e-001
      3.13231826e-001 3.13231826e-001 3.13231826e-001 9.98697579e-002
      3.60653177e-002 1.81182183e-003 2.09972579e-002 4.46051918e-002
      1.01734251e-001</_>
    <_>
      2.32598394e-001 3.29830833e-002 9.14341509e-002 1.09727323e-001
      2.90843248e-001 4.76081297e-002 9.60085914e-003 7.00880587e-002
      3.36679667e-001 3.36679667e-001 8.35475326e-003 2.61793267e-002
      4.04264145e-002 6.42360821e-002 1.23856952e-002 1.57407834e-003
      3.07253562e-002 3.36679667e-001 3.36679667e-001 1.93911120e-002
      6.76273042e-003 5.91256609e-003 6.60453141e-002 2.62130611e-002
      2.99206395e-002 1.46944851e-001 3.36679667e-001 3.36679667e-001
      5.45156095e-003 4.20230441e-003 1.04366278e-003 1.55539787e-003
      3.88259476e-004 1.34349603e-003 7.08497502e-003 3.36679667e-001
      3.45801264e-001 4.00295742e-002 6.56927824e-002 1.75186358e-002
      9.91724338e-003 4.53490706e-004 7.12949841e-004 1.71744544e-002
      3.45801264e-001 3.45801264e-001 4.67106923e-002 6.32972345e-002
      1.75609086e-002 8.45014304e-003 1.29776553e-003 4.01733723e-003
      2.56802738e-002 3.45801264e-001 3.45801264e-001 1.91862751e-002
      1.72357187e-002 4.96001355e-003 1.85082536e-004 0. 0.
